/*
 * Copyright (c) 2025 EdgeImpulse Inc.
 *
 * Generated by Edge Impulse and licensed under the applicable Edge Impulse
 * Terms of Service. Community and Professional Terms of Service
 * (https://edgeimpulse.com/legal/terms-of-service) or Enterprise Terms of
 * Service (https://edgeimpulse.com/legal/enterprise-terms-of-service),
 * according to your product plan subscription (the “License”).
 *
 * This software, documentation and other associated files (collectively referred
 * to as the “Software”) is a single SDK variation generated by the Edge Impulse
 * platform and requires an active paid Edge Impulse subscription to use this
 * Software for any purpose.
 *
 * You may NOT use this Software unless you have an active Edge Impulse subscription
 * that meets the eligibility requirements for the applicable License, subject to
 * your full and continued compliance with the terms and conditions of the License,
 * including without limitation any usage restrictions under the applicable License.
 *
 * If you do not have an active Edge Impulse product plan subscription, or if use
 * of this Software exceeds the usage limitations of your Edge Impulse product plan
 * subscription, you are not permitted to use this Software and must immediately
 * delete and erase all copies of this Software within your control or possession.
 * Edge Impulse reserves all rights and remedies available to enforce its rights.
 *
 * Unless required by applicable law or agreed to in writing, the Software is
 * distributed on an "AS IS" BASIS, WITHOUT WARRANTIES OR CONDITIONS OF ANY KIND,
 * either express or implied. See the License for the specific language governing
 * permissions, disclaimers and limitations under the License.
 */
// Generated on: 27.12.2025 11:24:21

#include <stdio.h>
#include <stdlib.h>
#include "edge-impulse-sdk/tensorflow/lite/c/builtin_op_data.h"
#include "edge-impulse-sdk/tensorflow/lite/c/common.h"
#include "edge-impulse-sdk/tensorflow/lite/micro/micro_mutable_op_resolver.h"
#include "edge-impulse-sdk/porting/ei_classifier_porting.h"

#if EI_CLASSIFIER_PRINT_STATE
#if defined(__cplusplus) && EI_C_LINKAGE == 1
extern "C" {
    extern void ei_printf(const char *format, ...);
}
#else
extern void ei_printf(const char *format, ...);
#endif
#endif

#define STRINGIZE(x) #x
#define STRINGIZE_VALUE_OF(x) STRINGIZE(x)

#if defined (__GNUC__)  /* GNU compiler */
#define ALIGN(X) __attribute__((aligned(X)))
#define DEFINE_SECTION(x) __attribute__((section(x)))
#elif defined (_MSC_VER)
#define ALIGN(X) __declspec(align(X))
#elif defined (__TASKING__) /* TASKING Compiler */
#define ALIGN(X) __align(X)
#define DEFINE_SECTION(x) __attribute__((section(x)))
#elif defined (__ARMCC_VERSION) /* Arm Compiler */
#define ALIGN(X) __ALIGNED(x)
#define DEFINE_SECTION(x) __attribute__((section(x)))
#elif defined (__ICCARM__) /* IAR Compiler */
#define ALIGN(x) __attribute__((aligned(x)))
#define DEFINE_SECTION(x) __attribute__((section(x)))
#elif defined (__clang__) /* LLVM/Clang Compiler */
#define ALIGN(X) __ALIGNED(x)
#define DEFINE_SECTION(x) __attribute__((section(x)))
#endif

#if defined(EI_MODEL_SECTION) && (defined(__GNUC__) || defined(__clang__))
#define MODEL_SECTION(X) __attribute__((section(STRINGIZE_VALUE_OF(X))))
#else
#define MODEL_SECTION(X)
#endif

#ifndef EI_MAX_SCRATCH_BUFFER_COUNT
#ifndef CONFIG_IDF_TARGET_ESP32S3
#define EI_MAX_SCRATCH_BUFFER_COUNT 14
#else
#define EI_MAX_SCRATCH_BUFFER_COUNT 28
#endif // CONFIG_IDF_TARGET_ESP32S3
#endif // EI_MAX_SCRATCH_BUFFER_COUNT

#ifndef EI_MAX_OVERFLOW_BUFFER_COUNT
#define EI_MAX_OVERFLOW_BUFFER_COUNT 10
#endif // EI_MAX_OVERFLOW_BUFFER_COUNT

using namespace tflite;
using namespace tflite::ops;
using namespace tflite::ops::micro;

namespace {

#if defined(EI_CLASSIFIER_ALLOCATION_STATIC_HIMAX) || defined(EI_CLASSIFIER_ALLOCATION_STATIC_HIMAX_GNU)
constexpr int kTensorArenaSize = 242576;
#else
constexpr int kTensorArenaSize = 241552;
#endif

#if defined(EI_CLASSIFIER_ALLOCATION_STATIC)
#if defined (EI_TENSOR_ARENA_LOCATION)
uint8_t tensor_arena[kTensorArenaSize] ALIGN(16) DEFINE_SECTION(STRINGIZE_VALUE_OF(EI_TENSOR_ARENA_LOCATION));
#else
uint8_t tensor_arena[kTensorArenaSize] ALIGN(16);
#endif
#elif defined(EI_CLASSIFIER_ALLOCATION_STATIC_HIMAX)
#pragma Bss(".tensor_arena")
uint8_t tensor_arena[kTensorArenaSize] ALIGN(16);
#pragma Bss()
#elif defined(EI_CLASSIFIER_ALLOCATION_STATIC_HIMAX_GNU)
uint8_t tensor_arena[kTensorArenaSize] ALIGN(16) __attribute__((section(".tensor_arena")));
#else
#define EI_CLASSIFIER_ALLOCATION_HEAP 1
uint8_t* tensor_arena = NULL;
#endif

static uint8_t* tensor_boundary;
static uint8_t* current_location;

template <int SZ, class T> struct TfArray {
  int sz; T elem[SZ];
};

enum used_operators_e {
  OP_CONV_2D, OP_DEPTHWISE_CONV_2D, OP_PAD, OP_ADD, OP_SOFTMAX,  OP_LAST
};

struct TensorInfo_t { // subset of TfLiteTensor used for initialization from constant memory
  TfLiteAllocationType allocation_type;
  TfLiteType type;
  void* data;
  TfLiteIntArray* dims;
  size_t bytes;
  TfLiteQuantization quantization;
};

typedef struct {
  TfLiteTensor tensor;
  int16_t index;
} TfLiteTensorWithIndex;

typedef struct {
  TfLiteEvalTensor tensor;
  int16_t index;
} TfLiteEvalTensorWithIndex;

TfLiteContext ctx{};
static const int MAX_TFL_TENSOR_COUNT = 4;
static TfLiteTensorWithIndex tflTensors[MAX_TFL_TENSOR_COUNT];
static const int MAX_TFL_EVAL_COUNT = 4;
static TfLiteEvalTensorWithIndex tflEvalTensors[MAX_TFL_EVAL_COUNT];
TfLiteRegistration registrations[OP_LAST];

namespace g0 {
const TfArray<4, int> tensor_dimension0 = { 4, { 1,96,96,1 } };
const TfArray<1, float> quant0_scale = { 1, { 0.0036585312336683273, } };
const TfArray<1, int> quant0_zero = { 1, { -128 } };
const TfLiteAffineQuantization quant0 = { (TfLiteFloatArray*)&quant0_scale, (TfLiteIntArray*)&quant0_zero, 0 };
const MODEL_SECTION(EI_MODEL_SECTION) ALIGN(16) int32_t tensor_data1[4*2] = { 
  0, 0, 
  0, 1, 
  0, 1, 
  0, 0, 
};
const TfArray<2, int> tensor_dimension1 = { 2, { 4,2 } };
const MODEL_SECTION(EI_MODEL_SECTION) ALIGN(8) int32_t tensor_data2[2] = { 61693, -56440, };
const TfArray<1, int> tensor_dimension2 = { 1, { 2 } };
const TfArray<2, float> quant2_scale = { 2, { 7.9032659414224327e-05, 8.6757827375549823e-05, } };
const TfArray<2, int> quant2_zero = { 2, { 0,0 } };
const TfLiteAffineQuantization quant2 = { (TfLiteFloatArray*)&quant2_scale, (TfLiteIntArray*)&quant2_zero, 0 };
const MODEL_SECTION(EI_MODEL_SECTION) ALIGN(16) int8_t tensor_data3[2*1*1*32] = { 
  /* [0][0][][] */ 73,-48,-60,121,-66,3,-45,105,127,-27,-52,-29,-22,78,-39,30,118,-71,-48,-94,121,76,104,-67,-55,-109,-40,105,6,-96,-2,64, 
  /* [1][0][][] */ 57,82,78,-66,-92,80,-13,11,-38,-28,43,114,121,47,39,0,-40,2,-62,-98,-81,42,31,112,88,81,-50,-17,109,-109,-127,-16, 
};
const TfArray<4, int> tensor_dimension3 = { 4, { 2,1,1,32 } };
const TfArray<2, float> quant3_scale = { 2, { 0.0031228449661284685, 0.0034280922263860703, } };
const TfLiteAffineQuantization quant3 = { (TfLiteFloatArray*)&quant3_scale, (TfLiteIntArray*)&g0::quant2_zero, 0 };
const MODEL_SECTION(EI_MODEL_SECTION) ALIGN(16) int32_t tensor_data4[32] = { 146, 434, 437, -243, 619, 475, -201, 345, -406, 484, 402, 469, 407, 428, 211, -525, -494, -731, -414, -54, -367, 442, -5, 276, 226, 436, -365, 346, 113, -295, 1170, -524, };
const TfArray<1, int> tensor_dimension4 = { 1, { 32 } };
const TfArray<32, float> quant4_scale = { 32, { 4.0478134906152263e-05, 4.0728933527134359e-05, 4.0284190617967397e-05, 4.1318027797387913e-05, 4.1226743633160368e-05, 3.7223981053102762e-05, 3.8728605431970209e-05, 3.8924947148188949e-05, 4.029431875096634e-05, 4.2463729187147692e-05, 4.4330234231892973e-05, 4.1440740460529923e-05, 4.3835098040290177e-05, 4.0992879803525284e-05, 4.0949122194433585e-05, 4.101349986740388e-05, 3.7969602999510244e-05, 4.3710475438274443e-05, 4.061399886268191e-05, 4.2795541958184913e-05, 3.9952421502675861e-05, 4.043750959681347e-05, 4.4543972762767226e-05, 3.746410584426485e-05, 3.8626923924311996e-05, 4.2354997276561335e-05, 4.0086342778522521e-05, 4.448352410690859e-05, 4.1072995372815058e-05, 3.9370981539832428e-05, 4.5925156882731244e-05, 4.0631031879456714e-05, } };
const TfArray<32, int> quant4_zero = { 32, { 0,0,0,0,0,0,0,0,0,0,0,0,0,0,0,0,0,0,0,0,0,0,0,0,0,0,0,0,0,0,0,0 } };
const TfLiteAffineQuantization quant4 = { (TfLiteFloatArray*)&quant4_scale, (TfLiteIntArray*)&quant4_zero, 0 };
const MODEL_SECTION(EI_MODEL_SECTION) ALIGN(16) int8_t tensor_data5[32*1*1*96] = { 
  /* [0][0][][] */ -42,-51,108,7,100,-13,-87,-111,41,-106,-107,-7,43,-3,-37,41,-60,-45,-79,-65,-68,-123,-13,97,-127,8,68,-49,113,2,-18,-81,85,-63,-100,68,-122,-95,-96,21,79,-83,-124,95,53,-127,88,-31,-1,-56,-28,101,-74,-43,-96,101,28,62,96,-115,-78,86,-54,50,-5,18,73,94,57,80,62,-114,82,-122,31,89,-111,3,-83,11,54,24,76,-5,-77,-39,-101,88,28,101,-24,-122,16,50,35,7, 
  /* [1][0][][] */ -50,43,-61,4,-28,93,48,11,72,-98,-96,113,69,-26,33,69,118,-35,38,121,-41,-5,42,28,36,26,-40,118,21,16,111,-56,70,115,-2,40,57,62,-7,-57,-53,18,-49,-91,-27,32,-44,-55,-21,-79,127,70,20,97,-72,-42,37,108,62,92,-51,127,-59,-69,-47,45,86,50,116,16,2,20,-114,86,-45,57,91,-51,-41,60,-72,97,-59,-110,32,126,-64,-75,87,76,89,31,93,80,39,-14, 
  /* [2][0][][] */ 54,47,-51,101,-10,-49,100,97,-127,92,-27,124,94,-14,91,-110,-50,-21,36,57,-93,-15,119,20,-34,89,107,19,-60,92,92,106,-61,-11,-87,-98,-84,96,114,-20,-108,-66,-13,0,-77,108,-40,-78,104,46,103,-78,-38,77,29,26,-61,104,-63,13,-10,71,-28,81,104,56,58,97,-85,54,-7,-64,34,-84,37,38,-48,-32,5,-5,46,-84,-17,-36,4,-91,-15,-45,98,108,-30,12,-38,-100,-36,-79, 
  /* [3][0][][] */ 73,-3,42,-23,-73,48,-116,38,80,19,61,8,91,97,70,5,105,95,-52,13,113,-87,-67,-86,8,-115,-74,103,42,-102,83,5,-57,-38,-19,-19,-90,-25,38,44,-28,-94,-67,-3,72,38,-29,-79,66,-85,38,-3,91,26,87,-99,-116,-120,-115,-61,-99,33,-41,69,52,-36,-63,-34,-36,-57,15,96,20,-103,52,-51,31,127,92,-51,-91,-120,44,93,30,44,-44,-100,-84,52,8,-108,111,-66,-94,49, 
  /* [4][0][][] */ 71,107,20,81,-12,-11,43,32,89,116,3,66,44,-11,5,-52,1,6,-36,37,124,-71,95,44,6,14,77,-50,-28,44,-53,-39,84,127,30,-72,-36,22,-98,53,-37,-52,-44,-81,46,123,58,82,38,-21,-5,-62,-74,49,-56,37,58,-81,50,26,17,-61,-30,-54,-33,67,27,-20,41,-72,-69,-71,-33,49,112,70,70,7,0,-29,25,-19,-69,-4,23,81,105,32,-103,-45,66,60,59,127,-89,14, 
  /* [5][0][][] */ 112,-90,96,97,55,-114,40,63,106,-122,7,-69,27,108,47,41,76,71,-78,109,41,56,24,-30,-113,-61,-17,-90,64,44,29,-99,-33,12,-69,30,-122,-39,58,31,-87,-46,15,112,-29,20,22,-58,-119,122,39,45,52,31,45,-17,127,61,-63,-36,42,-64,48,-68,-23,120,-20,40,92,-12,96,-67,-55,77,-27,-69,17,-58,13,76,125,58,23,125,-88,97,-2,32,82,-115,123,104,-11,15,90,-99, 
  /* [6][0][][] */ 22,-46,120,81,-89,-68,-3,73,9,-88,6,-87,104,58,127,-120,47,8,-3,110,-82,-121,115,92,-65,-88,2,-59,-31,-121,48,-81,-90,-125,-47,-113,-8,41,-116,94,90,58,47,13,-107,117,-66,-50,-67,19,-31,-67,62,-56,98,-21,7,-4,-70,126,-92,8,68,-77,-56,73,106,-40,81,4,-101,-6,74,-67,-90,-43,-57,-86,-59,-19,36,-30,49,-25,-54,-94,-42,-76,86,100,104,29,-48,-42,78,-27, 
  /* [7][0][][] */ 124,79,-32,-42,-68,127,-14,3,118,7,-95,19,61,-91,56,81,58,23,0,125,64,39,1,88,-69,113,47,66,-74,121,-13,44,34,32,76,112,-104,97,-2,-23,106,-73,74,79,62,-10,98,-112,58,-56,-106,-65,-20,102,22,37,125,-89,6,-57,15,2,90,-110,-64,-52,80,30,-106,12,64,97,91,28,69,69,-61,57,-100,47,101,-30,-18,-79,96,44,-112,96,94,11,92,70,-56,-52,6,-67, 
  /* [8][0][][] */ 4,25,-53,-97,49,15,-87,-22,14,32,36,89,-2,-46,-92,-78,-80,89,-64,15,27,-25,76,109,-119,85,44,67,-80,10,-102,108,86,-43,41,-13,113,5,-26,62,71,93,-85,-127,-19,-24,-3,115,17,-103,-75,-12,-74,-20,-40,-119,39,100,-99,97,106,33,34,99,-43,-57,-28,92,-97,66,49,-11,76,78,3,13,-56,111,83,90,28,71,-105,-95,21,34,69,-36,32,-33,-79,94,-90,-93,-57,71, 
  /* [9][0][][] */ 20,22,121,61,90,-87,-35,-99,65,62,4,66,-5,-60,-88,-7,28,23,-81,-54,16,107,-85,-76,121,5,2,42,-1,-52,-74,112,67,15,35,-4,-58,31,-23,-20,60,-55,79,-72,82,39,-83,70,76,2,-70,-28,83,-72,-55,111,101,-39,11,19,-74,111,97,-63,-73,17,112,61,-28,119,127,-79,28,94,-84,-80,-54,-104,-26,122,46,37,114,42,-22,-87,55,0,105,47,-8,123,120,21,64,-19, 
  /* [10][0][][] */ -50,85,95,-55,-4,108,109,27,27,33,30,-56,95,76,-24,13,-24,79,-89,-55,-11,27,58,-64,30,58,-106,-95,-35,83,-76,-66,87,101,116,78,-34,6,-24,39,-24,117,-127,-29,-82,-58,-15,-55,0,9,45,20,66,31,-53,-25,-85,-7,28,-34,4,83,110,48,119,-61,-81,-13,31,-28,-101,-53,79,54,-72,109,-8,56,62,8,79,11,46,102,-90,71,97,-31,39,3,-8,-58,-41,-54,-32,-68, 
  /* [11][0][][] */ 117,22,-2,110,127,56,63,32,104,96,-66,119,-2,-79,36,-59,-47,-95,65,44,39,75,32,-108,-103,-85,-15,80,89,4,37,-9,-77,-61,61,56,-54,76,-19,-50,-16,114,-97,13,-32,-60,-98,-83,78,111,121,61,-82,-77,25,34,-57,-47,-23,-78,-69,98,91,20,40,96,-47,38,98,50,-93,-61,41,93,-92,61,-56,30,-37,78,-95,-13,-72,-36,52,-69,21,-30,-84,-6,9,-92,-77,-41,-58,-47, 
  /* [12][0][][] */ 19,72,-41,7,92,18,-23,34,-77,60,-5,20,-38,13,53,-70,-84,-25,-43,-72,31,-9,22,91,-60,-38,96,-83,97,23,-23,117,-71,-56,-35,25,3,-68,-9,47,117,48,-127,-31,-12,-81,-49,110,-39,-100,-61,108,43,12,-70,87,-9,-47,52,70,62,116,3,61,115,41,-34,117,63,84,24,76,79,99,-10,4,-26,29,-106,-98,-45,108,39,21,-29,39,55,100,-80,-104,83,46,103,-24,37,64, 
  /* [13][0][][] */ 116,-50,112,103,104,125,90,66,62,-98,21,-22,94,74,75,-43,-109,-64,-68,32,75,-25,124,-46,-65,49,9,29,-77,-78,93,47,50,113,-13,47,-78,-28,33,76,-54,88,-77,19,-35,24,-14,-26,39,109,-23,-95,-89,42,108,-74,-38,36,-19,-67,-19,127,-68,24,-42,-53,-83,95,-26,-27,84,8,-90,30,-70,-32,-97,52,84,-74,61,-84,91,28,-77,-91,98,111,-2,-58,-78,60,120,-65,78,-16, 
  /* [14][0][][] */ -63,-90,93,69,87,-22,-8,-113,-93,-39,75,86,-33,-90,-88,-87,-56,-58,17,23,-40,24,-3,61,-117,-69,-34,37,-106,-108,-70,44,110,-19,-34,13,99,116,38,-107,2,-103,11,93,72,-120,45,-86,108,42,87,60,103,-5,-12,12,-44,11,41,103,-11,-75,-22,79,-84,-5,83,-105,-82,-103,-104,100,-3,75,50,-66,61,-111,53,21,49,-13,-118,-34,-127,-85,-114,99,113,2,80,-51,88,94,-7,54, 
  /* [15][0][][] */ 2,-35,-41,60,80,-100,49,-96,72,-11,-79,-1,97,-3,-97,-116,74,3,-91,23,46,34,67,103,81,58,39,82,8,46,54,-112,-3,-4,-72,-18,-70,116,103,-76,5,99,-28,-29,19,-77,-31,-73,-12,-92,-15,18,-108,-112,-57,-21,57,42,-49,99,-50,-77,-8,91,-47,86,-78,-8,-72,22,85,-81,15,0,53,-117,-8,58,104,101,-90,45,-95,-71,-127,-42,-98,49,80,81,-104,-50,40,125,-116,124, 
  /* [16][0][][] */ -83,-8,99,-73,34,108,-69,42,65,47,-125,68,-18,-52,-65,-66,105,79,76,69,113,86,-47,56,-35,50,-73,58,-120,4,32,2,-122,73,53,51,-41,59,-60,-82,13,-62,109,91,60,117,126,-10,-63,-127,-6,107,-54,111,65,39,18,88,74,5,118,106,29,56,47,4,-48,91,36,123,-12,-20,34,111,63,84,-19,113,-116,5,6,-101,72,5,9,100,104,22,77,23,-6,114,66,-20,-101,41, 
  /* [17][0][][] */ 17,-114,13,60,-53,-113,-75,-105,23,-95,66,34,79,40,-120,33,18,39,84,93,-104,-24,-2,-63,8,50,-84,13,87,-59,-42,62,-43,-34,17,-8,-55,77,-95,-33,-97,-51,-31,-20,-4,-5,65,-117,74,82,-21,15,-32,64,79,-85,-123,70,-94,-118,16,-96,61,79,-91,-79,27,-112,-111,-19,85,16,0,-127,-77,48,93,-51,24,-72,-5,-29,-84,-101,-120,55,61,-45,3,58,-108,-124,-28,73,2,-3, 
  /* [18][0][][] */ -103,93,98,-79,-17,-118,-111,-1,-8,72,-115,-55,-45,29,50,-63,14,-30,59,-32,93,-49,15,-87,24,-105,-25,104,20,25,-8,35,37,-36,-116,-117,-39,32,-42,56,-48,-8,-34,-16,-123,12,32,-7,14,-29,62,24,-117,-17,-7,79,-50,27,-24,-124,77,101,5,28,-77,-127,-42,80,59,-69,-75,101,-104,-25,-95,-112,47,63,-7,-78,-65,-17,-18,-73,99,-41,65,62,-116,-79,-71,98,78,-58,40,-21, 
  /* [19][0][][] */ 38,27,78,49,56,-75,93,93,103,-43,28,-2,-74,42,-45,68,90,-91,112,65,-18,81,-47,29,75,-70,46,-62,-86,-112,-61,47,80,-72,37,1,13,-59,-51,-81,43,-110,-49,18,-68,38,93,-75,4,43,-38,43,-31,13,15,3,24,101,10,-23,55,-48,98,60,-66,0,-20,8,-7,72,90,-46,-40,-106,-43,-74,-18,-81,20,119,60,-106,-12,75,-69,-6,12,8,86,47,22,72,-20,127,66,-31, 
  /* [20][0][][] */ -14,67,66,93,-94,87,13,58,26,10,-92,-2,-10,91,35,-75,-56,-41,-61,-33,20,-45,-80,-73,83,-79,-106,43,16,7,-47,109,96,39,-20,51,40,-29,-21,-116,-91,-42,-61,-108,-34,-58,-53,120,62,-125,-110,35,43,105,48,-7,90,69,102,86,108,-62,-72,-41,-34,-73,-56,10,-92,-60,-52,74,-64,-76,27,14,107,83,113,127,83,-2,93,-29,59,113,-18,83,17,107,38,62,18,37,-11,17, 
  /* [21][0][][] */ 100,84,82,-97,107,-68,83,18,-9,-60,-65,47,8,40,-43,-88,-97,-25,28,-12,115,-45,77,-84,59,-79,-31,83,24,13,2,-13,15,29,-86,-105,116,98,-111,-27,1,16,4,-9,-91,-86,-96,92,-21,-62,3,96,44,80,-89,32,-44,59,-50,127,61,-67,20,-4,91,40,-27,-62,-97,-18,47,86,35,-28,77,77,-107,-42,64,92,21,110,25,-67,30,-89,69,-92,-99,74,107,-110,-38,-69,77,-37, 
  /* [22][0][][] */ 26,-45,-78,-103,85,-50,105,43,-106,72,-66,-98,104,-118,-107,-80,25,81,-121,-63,70,-88,30,26,67,-7,-110,94,-63,-68,-56,-97,45,58,15,7,1,-33,-55,-101,7,-8,-19,90,50,-127,64,-40,-61,-87,8,-27,-58,-78,-60,32,-27,-25,-25,-25,102,-67,-71,-101,-59,19,-114,-40,105,76,-42,0,-65,-9,61,-87,42,-68,50,67,92,-93,-89,-126,67,73,90,-48,-62,13,-81,56,3,-1,-25,75, 
  /* [23][0][][] */ 72,-97,11,64,114,-115,12,-118,32,-89,98,85,16,-122,21,-50,104,-39,-127,103,86,-90,113,-54,-38,-11,86,29,86,60,86,-35,-40,52,25,44,103,-20,-118,10,-108,9,-20,-122,-80,-122,103,19,71,-121,-86,-48,94,-54,-55,102,-87,-19,103,52,-124,-92,-57,-4,45,46,-123,-117,77,-33,101,-73,-13,-62,-44,-99,45,-29,87,107,-56,-47,12,-119,102,4,125,-49,-100,32,101,-9,109,-84,-26,77, 
  /* [24][0][][] */ -79,-48,-105,-72,-83,-111,-65,-97,49,125,94,56,127,67,-37,-123,-90,49,19,-54,99,-80,-52,-41,43,-28,81,68,120,66,14,-59,5,16,61,34,-50,-93,72,-13,-72,-97,85,11,28,-60,41,74,-98,-55,-16,17,83,74,74,-67,-11,90,27,7,103,3,40,111,-96,108,-46,-92,-100,39,-75,-20,-39,27,106,109,71,-96,-111,-102,-81,-95,-75,-126,7,66,-8,-121,32,-118,-2,-78,-28,5,-92,19, 
  /* [25][0][][] */ -77,-46,-66,-3,100,-59,-89,50,34,-106,-29,29,72,-2,-100,-20,-62,63,23,-105,71,81,-6,-55,13,-43,-99,47,84,-76,48,121,98,-98,49,80,99,-61,-15,-10,-71,105,-127,9,103,33,47,32,-102,96,-57,14,52,-7,-55,18,-11,58,-103,80,122,52,57,54,11,83,-10,1,-77,-20,-41,-100,33,-125,73,31,76,64,11,5,56,60,-55,87,-68,-38,-94,-96,-15,-47,93,27,-105,-29,-8,-91, 
  /* [26][0][][] */ 50,-124,-26,-17,-106,-12,-17,-9,-102,-127,103,85,-80,-39,11,-16,111,27,-80,-66,11,84,98,16,52,59,19,42,7,2,-101,-8,-33,-68,-101,-111,-67,89,-54,107,-107,98,87,30,-76,78,-14,111,-24,24,-12,95,6,-54,-7,-111,92,61,55,21,-1,-101,61,-28,110,-25,-60,53,-95,96,110,93,85,-87,-89,3,44,-104,-94,29,-33,69,97,-80,81,-4,-49,22,-86,124,21,15,-62,124,46,101, 
  /* [27][0][][] */ 27,18,-49,-82,-104,-58,-57,9,70,104,44,-86,-5,72,87,0,71,4,69,-59,-70,29,-13,8,-65,52,-75,5,63,29,-27,-1,67,75,-73,-70,-55,-46,-93,95,-81,18,56,30,105,52,86,116,111,73,55,-59,-80,-82,6,-18,104,-10,-74,-56,-30,-53,-23,52,38,-35,-91,112,49,31,-78,10,82,-31,15,-73,65,-35,103,123,88,-19,127,-46,-46,-63,-19,56,-34,25,-7,-25,63,42,78,72, 
  /* [28][0][][] */ 78,-1,75,45,-108,-57,-92,-80,-58,-120,61,74,-80,-104,-20,101,93,113,-95,77,-49,-1,-100,-78,-127,76,-84,-54,-79,-77,3,-16,-101,17,79,48,23,-110,-39,35,104,49,-117,55,-103,-32,-10,49,23,-87,-77,-34,-79,29,52,43,34,-9,87,45,-2,-37,-94,11,63,74,-33,80,-79,5,-125,-40,71,16,-3,-96,-108,-81,-109,22,-71,-93,83,-51,63,-110,71,-99,-112,-80,-60,-63,-64,31,-114,-92, 
  /* [29][0][][] */ 52,51,59,-52,-96,8,-127,9,124,-16,-96,-101,109,-101,-49,-48,-103,102,33,-66,-72,-29,53,9,-27,5,-43,-33,-110,-12,101,-8,50,-3,-84,-61,-13,110,-12,92,45,105,-17,81,-3,122,-37,-18,17,-6,55,-100,70,-110,113,44,-98,54,-51,108,-123,94,-101,-58,-68,-69,53,88,94,-68,52,-78,116,86,60,23,116,-60,-28,49,-6,-91,0,-79,65,118,43,94,-38,109,84,81,-97,44,-6,69, 
  /* [30][0][][] */ 51,-40,-29,59,-63,42,-30,11,127,11,24,-13,-64,41,78,33,18,54,106,-65,61,-63,-72,36,-78,48,-40,125,13,-81,-58,30,-48,-36,-79,-23,38,11,18,41,105,-42,15,112,116,-14,115,76,-44,94,37,-70,109,-33,18,117,-47,-25,-47,-25,-71,20,-43,1,-73,-54,-59,107,-29,122,69,-5,-54,121,61,-49,-33,-42,-44,-27,52,49,-70,7,-70,49,-69,122,-8,-76,94,74,-4,21,31,-34, 
  /* [31][0][][] */ 72,-100,28,92,42,54,-69,-101,-31,-27,-86,-91,98,-124,-56,109,-72,-95,35,44,59,54,-35,106,41,-124,37,32,-83,-82,39,101,13,13,-98,-18,97,-35,-74,-116,52,-79,-3,29,-1,-58,-22,25,68,15,85,-38,-124,-67,-88,15,-127,62,3,109,-44,-11,80,-85,62,104,-54,-87,64,-111,-96,3,-94,-17,2,-2,-64,-28,49,119,-84,-53,67,66,62,91,-99,18,12,-49,-90,-60,2,107,-13,-11, 
};
const TfArray<4, int> tensor_dimension5 = { 4, { 32,1,1,96 } };
const TfArray<32, float> quant5_scale = { 32, { 0.0018086450872942805, 0.0018198513425886631, 0.0017999792471528053, 0.0018461731960996985, 0.0018420944688841701, 0.0016632429324090481, 0.0017304725479334593, 0.0017392454901710153, 0.0018004318699240685, 0.001897365553304553, 0.0019807647913694382, 0.0018516563577577472, 0.0019586409907788038, 0.0018316449131816626, 0.0018296897178515792, 0.0018325663404539227, 0.0016965589020401239, 0.0019530727295204997, 0.0018147157970815897, 0.0019121916266158223, 0.0017851551529020071, 0.001806829939596355, 0.0019903150387108326, 0.0016739722341299057, 0.0017259293235838413, 0.0018925070762634277, 0.0017911391332745552, 0.0019876139704138041, 0.0018352246843278408, 0.0017591753276064992, 0.0020520291291177273, 0.0018154769204556942, } };
const TfLiteAffineQuantization quant5 = { (TfLiteFloatArray*)&quant5_scale, (TfLiteIntArray*)&g0::quant4_zero, 0 };
const MODEL_SECTION(EI_MODEL_SECTION) ALIGN(16) int32_t tensor_data6[96] = { 1599, 6, 2979, 5326, 4632, -2809, 4598, -1323, -2607, -592, 5657, -2814, 3852, 6257, 1647, 1846, -741, -601, -1702, 6784, 2329, -460, 2673, -548, -1168, 2931, 1340, 1840, 6279, 2266, 5393, 1461, 1002, 4974, 4022, 3367, -627, 3371, 2665, -4311, -451, 1357, 136, 2008, -1472, 464, -1204, 631, -7836, 2050, 1244, -2821, 7577, -983, 1557, 1084, 1026, 2645, -977, -2622, 156, 1781, 387, 4815, 6522, 3786, 2792, 6095, 4541, -886, 4233, 4621, 3991, -1719, 6248, 6968, 802, -3771, 492, 1352, 9143, 2410, -534, -2572, 1039, 632, 1754, -2147, 3568, -528, 4047, 1156, 43, -3375, -103, 1595, };
const TfArray<1, int> tensor_dimension6 = { 1, { 96 } };
const TfArray<96, float> quant6_scale = { 96, { 0.00013129957369528711, 0.00026655595866031945, 0.00018589844694361091, 0.00014536741946358234, 0.00013841036707162857, 0.00014887144789099693, 0.00013169008889235556, 0.0001750093069858849, 0.00014812687004450709, 0.00024642833159305155, 0.00010975982877425849, 0.00015356294170487672, 0.00014686473878100514, 9.6539122750982642e-05, 0.00019501552742440253, 0.00021416042000055313, 0.00022750289645045996, 0.00017248417134396732, 0.00017236972053069621, 9.2344133008737117e-05, 0.0001808047090889886, 0.00020462552492972463, 0.00013769081851933151, 0.00021120514429640025, 0.00020635800319723785, 0.00020195478282403201, 0.00021749196457676589, 0.00017870658484753221, 0.00011607951455516741, 0.0001901577488752082, 9.9275974207557738e-05, 0.00016095449973363429, 0.00027837645029649138, 0.00012161267659394071, 0.00015486216580029577, 0.00014905068383086473, 0.00016396504361182451, 0.00013897377357352525, 0.00015048720524646342, 0.00012312603939790279, 0.00017898177611641586, 0.00017504405695945024, 0.00021077577548567206, 0.00013031491835135967, 0.00016580810188315809, 0.00016946313553489745, 0.00021013997320551425, 0.00021245254902169108, 9.0539819211699069e-05, 0.00013499782653525472, 0.00021321115491446108, 0.00016777122800704092, 9.9322736787144095e-05, 0.00016401984612457454, 0.00020873849280178547, 0.00023517843510489911, 0.00016069438424892724, 0.00014485273277387023, 0.00017857408965937793, 0.00012040403089486063, 0.00020199400023557246, 0.00015611181152053177, 0.00024761247914284468, 0.00013748258061241359, 0.00010618961823638529, 0.0001278981362702325, 0.00013973614841233939, 0.00012092328688595444, 0.00015011294453870505, 0.00016306742327287793, 0.00011101113341283053, 0.00014562276192009449, 0.00011216048733331263, 0.00013902295904699713, 0.00011237602302571759, 0.00011657142022158951, 0.00012538586452137679, 0.00015512140817008913, 0.00018809523317031562, 0.00014379803906194866, 9.1796900960616767e-05, 0.00012525933561846614, 0.00017400705837644637, 0.00015839844127185643, 0.00018982251640409231, 0.00015021044237073511, 0.00014962856948841363, 0.00017548106552567333, 0.00017150919302366674, 0.00017016715719364583, 0.00014967391325626522, 0.00018280114454682916, 0.00016831247194204479, 0.00012298724323045462, 0.00026002881349995732, 0.00016091245925053954, } };
const TfArray<96, int> quant6_zero = { 96, { 0,0,0,0,0,0,0,0,0,0,0,0,0,0,0,0,0,0,0,0,0,0,0,0,0,0,0,0,0,0,0,0,0,0,0,0,0,0,0,0,0,0,0,0,0,0,0,0,0,0,0,0,0,0,0,0,0,0,0,0,0,0,0,0,0,0,0,0,0,0,0,0,0,0,0,0,0,0,0,0,0,0,0,0,0,0,0,0,0,0,0,0,0,0,0,0 } };
const TfLiteAffineQuantization quant6 = { (TfLiteFloatArray*)&quant6_scale, (TfLiteIntArray*)&quant6_zero, 0 };
const MODEL_SECTION(EI_MODEL_SECTION) ALIGN(16) int8_t tensor_data7[96*1*1*16] = { 
  /* [0][0][][] */ -5,112,-89,45,46,-28,102,68,-68,5,40,-104,95,127,-59,21, 
  /* [1][0][][] */ -15,4,-61,-22,-12,42,19,-127,32,-41,-17,-56,-8,-37,-50,1, 
  /* [2][0][][] */ -27,-31,35,69,27,38,-106,127,-17,4,70,-52,-24,-61,-48,64, 
  /* [3][0][][] */ 98,-87,75,1,-9,-29,-38,127,-34,62,75,47,0,52,19,14, 
  /* [4][0][][] */ -31,-10,-3,54,-92,24,-30,-127,9,-10,29,-22,44,42,110,100, 
  /* [5][0][][] */ 127,21,-25,-29,-78,16,26,78,19,-10,68,101,119,34,-96,2, 
  /* [6][0][][] */ 23,-26,-56,-47,-81,15,1,-56,-46,-55,-29,21,98,46,127,-8, 
  /* [7][0][][] */ -57,34,-29,-76,0,-58,-74,13,-98,53,-69,-67,-127,-44,17,93, 
  /* [8][0][][] */ 54,45,74,10,53,25,70,9,68,-30,42,4,-127,-29,-76,15, 
  /* [9][0][][] */ -36,56,26,-46,-24,-16,30,-11,-28,46,-40,14,40,127,21,26, 
  /* [10][0][][] */ 68,44,-41,45,-23,-21,57,-43,-80,-41,-63,-96,-127,-65,4,99, 
  /* [11][0][][] */ 53,12,63,14,-16,-24,12,104,-94,24,-32,-2,-7,-9,72,127, 
  /* [12][0][][] */ -46,-12,3,5,16,9,127,38,-67,24,6,-20,0,72,-37,108, 
  /* [13][0][][] */ 28,55,35,69,123,55,124,127,-53,125,-103,-86,51,95,-121,-38, 
  /* [14][0][][] */ -108,127,3,-11,-11,14,60,-5,-45,33,119,-16,-84,15,-35,44, 
  /* [15][0][][] */ -16,-23,-127,-49,84,-48,-90,-33,-21,-21,-16,-64,-11,-79,-60,48, 
  /* [16][0][][] */ 107,-22,13,-16,36,-36,46,-16,-37,10,127,57,42,10,-44,21, 
  /* [17][0][][] */ 9,15,-23,-108,-7,-68,120,-127,5,-18,-45,39,35,82,1,52, 
  /* [18][0][][] */ 26,119,-20,-50,66,-76,-16,-52,-40,127,-25,1,-33,65,-17,-27, 
  /* [19][0][][] */ -66,-115,127,-101,39,-124,33,-48,49,45,97,105,37,-20,81,-33, 
  /* [20][0][][] */ -17,98,64,10,12,6,17,-26,60,-1,101,-29,-127,-27,-74,-14, 
  /* [21][0][][] */ -70,35,27,24,63,34,64,49,-127,54,-44,18,-24,13,-60,-21, 
  /* [22][0][][] */ 22,-88,46,19,17,-127,127,0,15,-60,-45,-87,53,-97,-54,-55, 
  /* [23][0][][] */ -63,-104,45,62,34,-24,26,-43,21,-36,83,5,5,80,75,127, 
  /* [24][0][][] */ -5,-6,27,78,50,14,-50,-127,65,18,-45,20,1,5,-27,-26, 
  /* [25][0][][] */ -16,24,23,-53,-21,-10,14,-27,-24,53,-44,-4,33,127,16,6, 
  /* [26][0][][] */ -67,82,4,16,27,-85,1,-34,12,21,12,74,13,-4,-78,127, 
  /* [27][0][][] */ -23,-127,-44,2,-56,86,0,-56,19,-34,55,-25,25,-43,-105,-22, 
  /* [28][0][][] */ -29,8,37,86,23,17,-38,-127,-115,46,104,-18,77,6,-38,-24, 
  /* [29][0][][] */ -126,120,-26,-29,-33,31,-127,-80,-48,-32,-1,-9,15,-71,-109,56, 
  /* [30][0][][] */ 54,83,-41,85,-110,-83,-70,-21,-32,-2,6,-116,127,26,0,82, 
  /* [31][0][][] */ 127,27,-68,-33,-66,19,97,39,-61,-11,71,51,48,23,-26,7, 
  /* [32][0][][] */ -34,-24,127,-1,-17,68,69,21,-13,-9,-8,26,1,73,59,37, 
  /* [33][0][][] */ -9,17,-60,-58,-14,22,122,30,1,-9,22,-55,87,127,-57,50, 
  /* [34][0][][] */ -103,-32,97,16,32,-61,113,-7,-127,32,34,-39,49,61,-59,-27, 
  /* [35][0][][] */ 4,28,-49,23,-79,127,-34,-24,-19,116,7,80,-58,60,28,35, 
  /* [36][0][][] */ -14,-78,127,-53,-48,13,-42,-6,18,24,-52,83,-2,-78,-42,42, 
  /* [37][0][][] */ 83,-5,72,-31,111,-74,-49,30,-59,127,-63,-1,-93,-48,104,-19, 
  /* [38][0][][] */ 49,51,12,-106,-14,-48,-100,55,-89,55,-101,-60,-64,-127,-101,63, 
  /* [39][0][][] */ -81,23,-54,-35,-76,-81,70,17,-127,-32,24,85,31,2,-7,54, 
  /* [40][0][][] */ 127,32,4,-98,-64,14,12,-31,-43,-26,-45,-71,7,59,32,35, 
  /* [41][0][][] */ 92,-69,-56,-39,-11,3,-55,-26,53,-18,9,-59,127,-72,59,-26, 
  /* [42][0][][] */ -4,-81,-50,127,-3,-89,-106,19,-1,7,16,50,-67,80,-51,2, 
  /* [43][0][][] */ -97,-51,-45,-124,-57,1,-4,81,46,-127,-33,39,-23,-52,-35,99, 
  /* [44][0][][] */ -47,35,43,-45,-19,-30,32,127,120,-78,81,114,116,58,-31,5, 
  /* [45][0][][] */ 26,69,-79,88,127,-89,-32,-61,97,-68,71,-62,-27,16,-79,71, 
  /* [46][0][][] */ -15,-32,1,-15,96,-19,30,21,-6,127,-25,-118,30,73,-37,63, 
  /* [47][0][][] */ 76,-46,-32,-13,83,-15,-39,-57,-2,127,-29,38,-7,-101,-83,11, 
  /* [48][0][][] */ 11,29,-11,-126,-3,-52,116,-127,7,5,-36,48,50,67,1,40, 
  /* [49][0][][] */ -14,127,-70,42,37,-44,62,47,-30,18,44,-90,-18,61,119,-87, 
  /* [50][0][][] */ 14,43,-19,6,-127,4,-61,-58,49,65,30,26,-32,-43,4,32, 
  /* [51][0][][] */ 127,-33,-50,-9,-48,89,-88,-45,43,-16,-37,59,-26,-71,7,38, 
  /* [52][0][][] */ -14,-41,45,79,-57,-97,-127,-19,-56,-57,-24,-80,22,-76,21,85, 
  /* [53][0][][] */ 28,99,55,-127,3,111,99,-19,-15,-29,-13,-41,92,-124,8,60, 
  /* [54][0][][] */ 25,110,11,-25,1,-94,-101,55,8,-21,-43,127,72,92,12,55, 
  /* [55][0][][] */ -35,-6,49,32,42,-28,100,81,-84,-4,20,4,127,41,1,-6, 
  /* [56][0][][] */ 127,17,18,19,-44,111,-55,-73,-25,50,-89,12,-68,112,-15,38, 
  /* [57][0][][] */ -49,-36,-44,-32,-68,-95,60,-19,-127,-22,60,56,17,38,-5,50, 
  /* [58][0][][] */ 46,-52,58,18,8,-61,-18,6,27,-12,-127,-24,23,-33,-37,39, 
  /* [59][0][][] */ 76,17,-127,101,11,41,84,-30,-74,-44,37,-105,-121,-62,30,118, 
  /* [60][0][][] */ -5,25,-12,17,-12,-30,-21,7,-31,-76,57,127,-50,-124,-40,-5, 
  /* [61][0][][] */ -27,26,87,-94,-91,70,-2,127,-15,-110,64,67,113,-16,26,124, 
  /* [62][0][][] */ 80,48,-11,-127,-20,7,10,-44,-9,33,-35,42,29,-27,-86,-74, 
  /* [63][0][][] */ 0,-22,1,-1,-65,-62,-51,7,-67,-11,-31,-22,127,-4,52,-11, 
  /* [64][0][][] */ 38,13,-18,69,-122,-36,-22,-98,57,127,40,-9,51,-69,-35,108, 
  /* [65][0][][] */ -25,16,-20,-9,-91,90,25,-34,54,-124,105,-78,86,65,-127,59, 
  /* [66][0][][] */ -127,84,-92,-90,46,-44,-106,-64,-94,105,86,9,-125,-47,35,52, 
  /* [67][0][][] */ 6,-27,-127,-105,61,77,6,-30,-27,-2,51,-22,30,34,21,45, 
  /* [68][0][][] */ 60,30,-5,-39,-72,47,11,32,-58,71,127,-22,-5,-52,-113,-8, 
  /* [69][0][][] */ 74,-98,62,-44,17,-115,-37,127,3,72,79,78,-20,67,-21,-10, 
  /* [70][0][][] */ 46,14,126,33,101,-20,127,15,27,23,-74,41,-72,60,-77,32, 
  /* [71][0][][] */ 4,25,103,-81,-127,-87,15,13,-23,-11,18,-102,-84,8,7,31, 
  /* [72][0][][] */ -67,-104,31,-116,80,-18,7,47,-63,17,-127,-14,54,116,-67,117, 
  /* [73][0][][] */ 22,23,54,-7,127,-95,-53,4,-36,102,-90,33,-87,-59,126,-18, 
  /* [74][0][][] */ -114,-4,-127,-73,73,-50,-44,33,-83,9,-122,-32,-44,-52,-47,79, 
  /* [75][0][][] */ 98,-19,48,-40,16,11,-127,-31,-6,-99,73,-1,7,-21,-2,-7, 
  /* [76][0][][] */ -6,-66,-34,118,47,86,102,-56,93,-124,72,127,32,-84,-81,38, 
  /* [77][0][][] */ -45,-36,127,-24,30,-29,-22,-125,13,18,37,91,51,45,15,9, 
  /* [78][0][][] */ -49,-1,15,-34,2,-55,29,-7,24,-14,16,-82,-99,-63,-127,-47, 
  /* [79][0][][] */ -98,-82,-13,27,127,33,-22,22,23,26,-18,50,-48,-71,-72,-16, 
  /* [80][0][][] */ -4,-127,50,121,-29,-36,-109,90,-1,30,76,12,-93,1,-29,66, 
  /* [81][0][][] */ 124,75,-13,97,-9,48,22,124,25,9,117,52,127,23,71,-20, 
  /* [82][0][][] */ -54,-2,13,-27,36,-127,-124,-88,8,78,-49,-30,-31,105,-77,-30, 
  /* [83][0][][] */ 116,-15,81,-26,-46,-7,-127,-13,24,-126,18,-58,-13,-16,19,-21, 
  /* [84][0][][] */ 11,-75,-87,32,127,33,32,37,-105,24,-100,-19,41,-27,-75,10, 
  /* [85][0][][] */ 3,75,46,-50,101,-7,41,-103,127,-30,32,-5,82,-73,0,-4, 
  /* [86][0][][] */ 119,-37,127,51,3,-59,75,40,-63,-51,-96,-48,37,20,-68,8, 
  /* [87][0][][] */ -4,6,18,-73,70,-29,-43,11,32,-37,71,-37,-81,-127,-7,22, 
  /* [88][0][][] */ -64,-38,39,-7,27,25,-63,-45,-2,11,-77,-127,-53,-36,-22,-16, 
  /* [89][0][][] */ -77,9,22,-66,29,3,-127,24,86,24,-70,-8,-16,-81,-48,-20, 
  /* [90][0][][] */ -8,-11,-31,-86,127,25,-63,38,47,61,33,-16,39,12,-68,-24, 
  /* [91][0][][] */ -51,-75,23,44,-38,-19,-14,82,-34,-54,31,-40,-12,71,14,127, 
  /* [92][0][][] */ -23,87,2,-10,-24,65,-104,46,-39,-6,66,-1,-31,127,57,22, 
  /* [93][0][][] */ -10,77,-58,-71,75,93,-80,8,60,69,80,57,-127,35,-46,82, 
  /* [94][0][][] */ 29,70,90,14,-127,-31,12,-16,16,-19,30,-22,-49,-28,19,-21, 
  /* [95][0][][] */ 3,24,37,6,127,-16,-93,73,19,11,-78,93,-3,14,97,-42, 
};
const TfArray<4, int> tensor_dimension7 = { 4, { 96,1,1,16 } };
const TfArray<96, float> quant7_scale = { 96, { 0.0015395263908430934, 0.0031254475470632315, 0.002179714385420084, 0.0017044759588316083, 0.0016229025786742568, 0.0017455617198720574, 0.0015441053546965122, 0.0020520358812063932, 0.0017368313856422901, 0.0028894452843815088, 0.0012869664933532476, 0.0018005708698183298, 0.0017220325535163283, 0.0011319498298689723, 0.0022866148501634598, 0.0025110943242907524, 0.0026675388216972351, 0.0020224279724061489, 0.002021085936576128, 0.0010827622609212995, 0.0021199886687099934, 0.0023992948699742556, 0.0016144656110554934, 0.002476442838087678, 0.0024196086451411247, 0.0023679796140640974, 0.002550157718360424, 0.0020953875500708818, 0.0013610667083412409, 0.0022296558599919081, 0.0011640401789918542, 0.0018872391665354371, 0.003264046274125576, 0.0014259446179494262, 0.0018158047460019588, 0.0017476633656769991, 0.0019225387368351221, 0.001629508682526648, 0.001764507032930851, 0.0014436892233788967, 0.0020986143499612808, 0.0020524433348327875, 0.0024714083410799503, 0.001527981017716229, 0.0019441491458564997, 0.0019870053511112928, 0.0024639533367007971, 0.0024910690262913704, 0.0010616062209010124, 0.001582889468409121, 0.0024999638553708792, 0.0019671672489494085, 0.0011645884951576591, 0.001923181232996285, 0.0024475206155329943, 0.0027575367130339146, 0.0018841892015188932, 0.0016984412213787436, 0.0020938341040164232, 0.0014117729151621461, 0.0023684394545853138, 0.0018304571276530623, 0.0029033294413238764, 0.0016120239160954952, 0.0012451047077775002, 0.0014996434329077601, 0.0016384476330131292, 0.001417861320078373, 0.0017601186409592628, 0.0019120138604193926, 0.0013016384327784181, 0.0017074699280783534, 0.0013151149032637477, 0.0016300852876156569, 0.0013176421634852886, 0.0013668343890458345, 0.0014701863983646035, 0.0018188444664701819, 0.0022054722066968679, 0.0016860745381563902, 0.0010763457976281643, 0.0014687028015032411, 0.0020402842201292515, 0.0018572686240077019, 0.0022257252130657434, 0.0017612618394196033, 0.001754439203068614, 0.0020575674716383219, 0.0020109959878027439, 0.0019952603615820408, 0.0017549709882587194, 0.0021433974616229534, 0.0019735135138034821, 0.001442061853595078, 0.0030489149503409863, 0.0018867461476475, } };
const TfLiteAffineQuantization quant7 = { (TfLiteFloatArray*)&quant7_scale, (TfLiteIntArray*)&g0::quant6_zero, 0 };
const MODEL_SECTION(EI_MODEL_SECTION) ALIGN(16) int32_t tensor_data8[16] = { 9851, 17252, -6086, 4607, -2519, 10295, -1693, 4555, 17878, -3991, -8014, 7892, -14506, 13127, 6838, 10156, };
const TfArray<1, int> tensor_dimension8 = { 1, { 16 } };
const TfArray<16, float> quant8_scale = { 16, { 5.1482726121321321e-05, 6.912374374223873e-05, 5.6525499530835077e-05, 6.0401463997550309e-05, 6.1084596381988376e-05, 6.8724861193913966e-05, 4.8543530283495784e-05, 5.4292257118504494e-05, 8.2206483057234436e-05, 6.5716412791516632e-05, 5.5932316172402352e-05, 4.6410019422182813e-05, 5.6994234910234809e-05, 6.1948383518029004e-05, 7.527308480348438e-05, 5.7274559367215261e-05, } };
const TfArray<16, int> quant8_zero = { 16, { 0,0,0,0,0,0,0,0,0,0,0,0,0,0,0,0 } };
const TfLiteAffineQuantization quant8 = { (TfLiteFloatArray*)&quant8_scale, (TfLiteIntArray*)&quant8_zero, 0 };
const MODEL_SECTION(EI_MODEL_SECTION) ALIGN(16) int8_t tensor_data9[16*1*1*96] = { 
  /* [0][0][][] */ -105,42,63,-24,-71,-6,-70,-1,-53,12,-18,-34,33,38,43,-34,10,2,101,18,5,-61,127,73,50,21,10,36,-67,-116,-93,11,-48,-42,36,16,13,25,-1,27,-7,1,-79,2,-65,-28,1,96,-16,10,-42,-12,-9,0,31,-51,-106,9,-10,81,59,35,-5,9,-33,-61,-42,29,-57,-71,10,-16,11,-6,-79,-53,-48,15,-31,6,-55,76,90,-72,14,50,16,55,39,-25,-12,-31,-35,-36,-54,19, 
  /* [1][0][][] */ 38,18,30,-47,-56,-29,-7,11,-14,17,54,-56,-3,-7,-60,-38,-13,1,-68,22,-14,-71,11,45,-15,-67,-10,-42,69,-109,100,-81,49,23,-22,48,32,69,-8,-45,27,11,0,-13,4,64,-127,-50,-56,-51,-21,-22,35,-46,-34,44,5,-6,-32,15,22,47,-7,-102,-14,-17,-62,-8,10,-18,-78,-6,-38,-26,22,-67,11,17,26,-71,-26,-23,-84,-31,38,-41,-23,20,-77,-12,-54,39,19,53,-56,47, 
  /* [2][0][][] */ 83,-34,20,26,14,-73,58,5,-7,-5,-12,-15,-68,-33,8,-28,-88,-53,-33,48,8,-56,-49,33,4,-62,14,-33,-37,50,-49,127,-46,113,-28,26,-7,-10,-14,-7,-94,83,71,21,-56,2,-21,-17,43,-1,-37,-57,51,-16,-30,57,45,4,42,-6,14,46,-28,14,71,9,-1,-5,30,56,-44,0,42,54,60,40,25,-67,71,55,88,-18,-47,26,-62,30,26,63,19,11,-16,37,-43,55,-10,37, 
  /* [3][0][][] */ -1,-10,-20,5,16,-15,8,-56,-17,49,34,60,22,-6,-50,36,-1,-30,23,7,9,127,37,-47,5,24,-26,10,65,-39,60,-23,-23,37,-33,-31,16,42,32,5,-75,-39,-32,28,-36,38,21,-6,-23,-49,-10,-21,48,-77,-29,-49,7,78,-28,4,-11,-14,-38,-3,25,49,-43,-7,-20,-7,9,-63,-25,-50,37,-8,15,-10,-40,-36,-32,-2,-56,6,-6,-33,29,-28,-5,18,22,-21,41,19,-37,56, 
  /* [4][0][][] */ 31,13,-44,19,22,30,-53,3,-36,90,101,-23,-6,-4,3,-46,19,-20,-24,54,24,-53,49,95,-70,7,-127,7,-52,-63,14,23,-59,-60,24,65,19,46,22,35,-32,-38,43,-23,2,2,-38,58,-35,58,12,13,49,-17,-89,12,59,-10,8,-14,56,0,26,16,-53,13,-33,14,-55,36,-45,48,38,-60,-47,-54,24,-55,0,17,-41,85,-80,7,-36,21,31,-66,64,10,39,15,-58,-20,45,37, 
  /* [5][0][][] */ -82,38,49,-13,51,-25,64,-40,-13,25,-3,-27,30,-14,-24,-48,-14,-33,49,23,-127,-17,-70,43,-51,-9,40,19,49,-84,-21,43,55,123,-20,36,-11,13,44,-18,-33,90,78,-28,-8,74,51,-6,-10,21,-23,27,16,-43,29,-87,30,-63,-62,-61,55,98,-49,-22,85,-39,-84,-73,-63,-28,-66,-2,-16,6,-20,-44,19,-49,-42,-26,121,-20,20,-96,-79,40,34,-10,-57,38,19,-12,-19,26,6,92, 
  /* [6][0][][] */ 45,-11,-92,31,-43,-114,111,92,-58,78,-17,82,-121,-88,62,67,-1,-66,-1,8,0,-20,-76,-64,-55,49,86,24,32,40,103,-56,28,15,21,-78,16,9,37,80,10,22,-62,-28,3,-69,-79,22,46,-127,-29,76,37,11,-27,-77,80,50,15,-2,-113,53,-102,2,27,7,4,66,45,34,0,-54,-43,25,103,36,63,-18,49,-72,-6,-60,-77,76,1,-65,50,11,-38,63,42,48,-20,19,-32,120, 
  /* [7][0][][] */ 27,80,-43,-52,-28,-7,38,13,-61,35,-54,-51,-33,12,16,-13,-50,-50,-33,64,-1,127,12,27,-2,4,21,29,48,47,83,-28,66,33,-24,12,-3,-11,-2,29,-58,-8,10,-59,13,-50,77,-21,45,-69,-78,-26,-51,8,-1,-9,32,10,-99,11,-10,107,13,-19,-21,5,-44,16,-46,-12,-104,31,17,68,-38,39,-56,55,9,-71,-22,-46,61,-80,42,-17,-12,4,-12,71,-87,51,57,-29,-45,6, 
  /* [8][0][][] */ -8,85,-48,44,-40,-24,-91,25,-102,-26,9,-3,-36,35,30,91,11,-53,11,11,32,-6,-2,-9,-34,77,3,18,-20,-16,-40,-27,-16,-62,-25,-67,-39,31,54,7,-1,-34,26,13,-31,-42,4,-11,-17,-17,48,65,2,-23,-75,95,-31,36,-9,-43,-32,13,23,54,-38,-65,-36,-5,-43,11,4,-4,-24,-44,-127,-19,-51,23,-57,-35,-30,-4,-48,-30,-7,-3,24,25,16,65,-51,-5,-88,-124,29,-46, 
  /* [9][0][][] */ -12,16,-73,42,-28,-31,67,55,-7,44,-26,91,-32,-23,26,127,9,15,67,14,15,15,36,-94,-37,-6,23,-6,15,-15,41,47,-31,3,-2,-107,23,-19,-27,-21,-13,19,45,-27,-12,7,13,17,35,80,29,-5,-57,-73,1,1,3,-12,64,-16,-64,52,-62,-22,85,-10,-24,4,-66,23,35,40,-5,83,-21,-27,-26,24,-44,-11,50,-26,65,-5,30,-13,-15,-30,-54,19,-2,-2,61,34,-46,-2, 
  /* [10][0][][] */ 71,-2,-43,-7,-28,-38,79,3,17,-33,-23,1,-102,-10,8,-11,-80,-30,18,18,34,40,28,1,-53,77,34,1,-44,-80,-36,-18,70,-26,42,7,69,-95,82,122,14,-65,11,3,-27,-83,-4,58,25,89,-69,-37,-25,30,20,63,8,-69,79,57,-17,44,-64,-28,-2,-56,15,50,24,-31,-15,49,127,30,34,-79,34,-55,49,-18,-52,38,34,17,-30,-4,4,48,-48,-16,20,46,47,59,-40,5, 
  /* [11][0][][] */ -65,-37,43,-63,8,-14,-33,-51,38,-39,6,-8,-8,1,2,9,-56,-7,70,16,-50,17,-88,-86,18,25,-42,33,30,-54,47,-26,29,-14,25,-22,-74,18,-119,25,-74,78,-57,64,26,0,-10,-41,29,-43,-70,-65,27,24,78,-64,-22,-67,12,-61,-20,-50,-21,-127,3,-75,69,79,117,29,85,-28,-49,-6,60,-38,93,46,34,60,36,-18,-29,101,72,-1,-6,-26,-79,-63,-6,32,65,50,67,82, 
  /* [12][0][][] */ 42,-26,0,-37,44,107,-4,38,56,54,-2,68,12,57,18,-6,-75,54,9,48,127,2,80,-75,29,18,-81,-64,-14,79,-4,2,27,1,1,-43,43,-11,-30,-41,18,-29,51,53,-31,48,6,-12,-76,30,6,30,-30,-24,18,23,-49,55,14,59,21,-102,17,-112,-4,102,-19,-44,-1,-51,61,20,-3,8,-1,57,-7,47,-89,-22,-27,39,123,10,0,84,-30,-67,72,5,-94,50,70,-1,-28,-101, 
  /* [13][0][][] */ -8,31,-21,-42,-35,-9,11,-34,13,-34,-36,-67,56,-99,-37,-69,-17,-34,-83,-13,-90,-32,21,95,-27,8,107,10,23,-31,48,40,9,-4,-123,127,-34,-48,28,-59,111,7,-2,20,-8,-85,54,-25,76,-7,-38,25,19,-6,0,74,67,-56,-41,-8,46,38,-6,-85,0,34,-38,30,-71,-30,-83,1,-59,24,-35,-89,-100,22,32,81,-15,63,41,-90,57,41,27,-8,-22,-10,-12,16,-61,14,-27,-11, 
  /* [14][0][][] */ -10,18,-86,-23,90,91,-94,-4,31,-51,78,-10,14,-22,-35,-76,-73,21,29,127,4,-22,2,6,-2,36,-36,74,10,-10,-29,5,64,0,-45,0,-24,57,78,6,61,-3,33,1,-11,-40,58,-42,19,-11,-13,-22,47,18,-37,32,9,58,-93,-7,-21,-69,-39,-108,11,-40,-51,-10,-85,49,-22,36,5,-33,-27,-34,41,-18,-57,-36,29,9,-5,-21,-9,49,-15,-16,-38,64,66,14,-3,-45,-50,-68, 
  /* [15][0][][] */ -71,-46,47,-73,26,-39,-31,-99,1,10,3,78,-14,-22,32,100,-127,-24,21,-75,29,-33,-11,-90,49,-19,53,-51,-62,-116,-81,35,-41,70,95,-114,-9,-44,31,-31,-32,-11,40,-12,-1,8,74,119,-57,-8,22,-47,-50,54,20,-53,-117,-18,124,16,-33,19,-99,22,-70,-18,1,25,70,-85,102,-17,72,-42,-29,-50,16,22,50,-2,-15,90,59,35,10,-19,-127,13,-7,-58,-94,21,51,-47,-30,77, 
};
const TfArray<4, int> tensor_dimension9 = { 4, { 16,1,1,96 } };
const TfArray<16, float> quant9_scale = { 16, { 0.0022786082699894905, 0.0030593937262892723, 0.0025017997249960899, 0.0026733486447483301, 0.0027035840321332216, 0.0030417395755648613, 0.0021485204342752695, 0.0024029572959989309, 0.0036384316626936197, 0.0029085865244269371, 0.0024755457416176796, 0.0020540920086205006, 0.0025225458666682243, 0.002741814823821187, 0.0033315618056803942, 0.0025349529460072517, } };
const TfLiteAffineQuantization quant9 = { (TfLiteFloatArray*)&quant9_scale, (TfLiteIntArray*)&g0::quant8_zero, 0 };
const MODEL_SECTION(EI_MODEL_SECTION) ALIGN(16) int32_t tensor_data10[96] = { -1687, 17, -2357, -4603, -1080, 2185, -1089, -880, 539, -2178, 10174, -1662, -971, 9320, 8425, -4572, 15082, 942, -4247, -107, -2469, -565, 3272, -2007, 781, -4037, -1337, -4883, 530, -8046, 228, -136, 8736, 364, -775, -154, 800, -1969, -774, 6260, -354, -461, 845, -6486, 11926, 12747, 772, 15159, -428, 13075, 14444, -3312, -714, 758, 122, 10240, -348, -1050, 15687, 7317, 7588, 11654, 8531, -6999, 176, 2143, -2243, 3722, -2795, -2133, 1199, 865, 11444, 157, -1777, 9205, -685, -75, 8840, -697, 26, 15704, -438, 1642, 19855, 1609, -5095, -2661, 2043, -6345, 11604, 324, -2566, -491, -4094, -3092, };
const TfArray<96, float> quant10_scale = { 96, { 0.000262238405412063, 0.00018603779608383775, 0.00014678071602247655, 0.00018749303126242012, 0.00026333349524065852, 0.00029320747125893831, 0.00035743782063946128, 0.00025190535234287381, 0.00025819463189691305, 0.00016045446682255715, 0.00011735181033145636, 0.00040419417200610042, 0.00024600126198492944, 0.0001332113315584138, 0.00014499828102998435, 0.00015048118075355887, 0.00013737929111812264, 0.00026554771466180682, 0.00016345972835551947, 0.00015205192903522402, 0.00021118990844115615, 0.00030613518902100623, 0.00024253182346001267, 0.00020101838163100183, 0.00058573478600010276, 0.00021705953986383975, 0.0002630232775118202, 0.00012271197920199484, 0.00019046338275074959, 0.00010134883632417768, 0.00030435450025834143, 0.00023543357383459806, 0.00018078707216773182, 0.00019902810163330287, 0.00028151707374490798, 0.00045249011600390077, 0.00021222974464762956, 0.00028463886701501906, 0.00032224628375843167, 0.00011320139310555533, 0.00019494036678224802, 0.00022531533613801003, 0.000233019411098212, 0.00011802033259300515, 0.00010733064118539914, 0.00011312185961287469, 0.00022756923863198608, 9.6360286988783628e-05, 0.00021038993145339191, 0.00010858121095225215, 8.9319517428521067e-05, 0.00014470172754954547, 0.00018202474166173488, 0.00015698588686063886, 0.00024894988746382296, 0.00016211259935516864, 0.0001939156063599512, 0.00023545949079561979, 0.00014636354171670973, 0.00013430813851300627, 0.00016340053116437048, 0.00016630144091323018, 0.00014791333524044603, 0.0001394255377817899, 0.00020871976448688656, 0.00026281733880750835, 0.00027438523829914629, 0.00022030860418453813, 0.00024172558914870024, 0.00020406545081641525, 0.00024479083367623389, 0.00017725526413414627, 0.00013305697939358652, 0.00027119438163936138, 0.00031769956694915891, 0.00013680981646757573, 0.00017093302449211478, 0.00018025118333753198, 0.00015748388250358403, 0.00023682104074396193, 0.00028215569909662008, 0.00011368326522642747, 0.00022137998894322664, 0.00019959062046837062, 6.82641621096991e-05, 0.00021591152471955866, 0.0001327824720647186, 0.00025167720741592348, 0.00022782891755923629, 0.00019382905156817287, 0.00010987067798851058, 0.00043541286140680313, 0.00024767225841060281, 0.00028438857407309115, 0.00013339004362933338, 0.0003373783256392926, } };
const TfLiteAffineQuantization quant10 = { (TfLiteFloatArray*)&quant10_scale, (TfLiteIntArray*)&g0::quant6_zero, 0 };
const MODEL_SECTION(EI_MODEL_SECTION) ALIGN(16) int8_t tensor_data11[1*3*3*96] = { 
  /* [0][0][][] */ 35,125,-15,23,-28,2,45,40,48,-68,-96,28,-14,-10,25,-50,-109,22,11,14,44,58,56,101,7,0,-42,-9,-6,16,21,-17,-38,12,-38,75,-3,67,8,-13,22,-31,-2,24,-98,-60,6,-24,-25,-82,-17,-8,6,55,-13,-11,-78,-56,-59,-127,-127,9,-104,7,-23,35,33,-25,-16,50,35,-4,-28,3,46,8,6,-39,-67,31,-1,-90,49,-33,-72,-48,-2,11,-127,8,-94,31,74,-6,67,6, -37,-29,-8,98,-8,84,-19,-8,49,31,-126,48,-32,-70,-105,127,-127,65,46,70,127,7,85,127,18,32,23,54,6,127,-6,-127,81,85,1,40,62,121,-20,-127,127,-6,91,127,-46,-88,127,-84,-9,-112,-93,-34,4,127,-24,-127,6,32,-121,-82,-39,-127,-55,85,-29,75,100,-33,6,127,127,0,-73,20,-28,-91,30,-62,-9,127,-10,-63,127,-60,-120,-47,113,52,95,122,-97,-3,127,-25,127,33, 26,-102,-6,11,-17,-7,-11,39,34,59,-65,0,-8,38,2,-74,-39,21,1,12,30,47,55,93,10,-35,32,61,3,26,-9,-56,-35,-73,-38,55,-5,8,11,19,-8,37,-12,48,-23,-22,0,-5,18,-53,6,18,-9,-15,6,-3,50,-68,-14,-70,-87,34,-80,-1,40,17,-44,-11,-20,-9,2,6,-4,-40,-4,16,-1,-18,-70,-5,3,-96,42,-17,-13,-31,3,-27,-100,-4,-11,28,24,35,19,-11, 
  /* [0][1][][] */ 105,-7,51,119,7,-52,127,39,-37,-127,-127,127,4,-127,-46,33,-65,-52,64,18,-95,-4,-127,-64,-21,50,-127,127,-90,74,127,78,29,52,11,127,-127,79,-13,-53,63,-127,22,92,-127,-80,-4,-127,-116,-116,-127,8,127,-66,91,-27,-127,3,-78,-11,-55,-62,-40,44,-89,-26,96,-107,-39,37,-38,-127,-123,58,127,-75,96,76,-89,-42,127,-127,-38,105,-29,-14,15,81,-12,29,-78,25,-1,-88,86,-13, -127,4,-51,127,-76,-127,-108,-127,58,8,-60,39,-86,-127,-43,123,-118,-127,127,127,37,-127,-112,109,-127,127,16,75,-92,-31,-110,80,-127,71,127,-19,17,127,127,-81,-40,23,20,54,-38,-127,-83,-114,-3,-127,-119,127,37,88,56,-89,29,24,81,-35,-31,-34,-127,127,-8,-127,127,127,19,61,-105,-77,-31,50,-100,-127,127,127,86,-47,-82,18,-106,71,-111,-90,127,127,127,127,-127,-127,-83,-56,89,127, 61,-16,85,78,5,-19,10,33,-49,111,-102,50,13,-8,-127,60,30,-30,16,-8,-102,1,-83,-70,-12,7,126,-19,127,116,10,-116,-19,-127,-19,117,-120,12,-36,-33,-8,107,29,127,-2,-24,-14,-83,127,-93,-92,-2,49,-102,-127,30,108,1,-127,54,-15,-34,10,41,127,-42,-21,-22,-53,0,-40,-43,-127,-127,0,-46,-14,-31,-127,-41,-70,-108,-25,127,-127,11,5,-4,-39,-15,5,37,-12,127,22,-15, 
  /* [0][2][][] */ 36,-127,35,-17,19,21,32,55,-47,-43,12,-19,10,4,5,30,-10,23,-13,39,4,49,2,-37,9,54,-2,-2,-21,11,0,30,-21,-15,-30,-8,34,0,3,-37,0,13,-18,-27,-22,-29,-13,-16,-16,9,-55,28,3,-3,-39,-9,-16,-3,-11,35,-49,-14,29,-9,-33,39,-54,-35,28,-4,24,88,-7,16,25,15,-38,-37,-11,-3,10,-37,-12,-43,-123,35,-23,-15,-87,53,7,21,-2,4,14,-13, -48,6,127,-3,127,71,-23,17,-127,18,-77,-27,127,-11,-65,38,22,56,-9,-52,27,18,38,-2,54,-55,-7,36,-23,96,-19,14,-74,21,9,-29,60,45,19,-109,-19,-9,-127,22,-11,-8,-40,-68,-8,-77,-77,89,113,-78,-36,-76,-23,127,-47,1,68,-124,83,63,-31,16,-50,8,127,-14,16,106,-74,18,-13,-57,-5,-85,-41,-34,-11,-82,-26,-70,-127,127,41,-6,97,48,42,22,-19,-7,-3,1, 13,77,33,-14,10,-11,-12,48,-2,66,12,12,8,14,-9,32,-22,12,-8,36,-9,40,-8,-47,1,48,16,34,5,39,-24,-76,-46,-22,-21,-20,32,-25,-4,-21,-1,-8,12,-5,-39,-21,-10,-9,16,14,-39,11,1,-21,5,13,-1,7,0,63,-35,5,16,-23,25,9,-65,5,19,-6,17,88,23,-11,2,9,-20,-7,-14,9,-5,-79,-21,-12,-90,19,-23,-29,-84,41,11,17,-9,9,-5,-16, 
};
const TfArray<4, int> tensor_dimension11 = { 4, { 1,3,3,96 } };
const TfArray<96, float> quant11_scale = { 96, { 0.011145131662487984, 0.0079066064208745956, 0.0062381802126765251, 0.0079684536904096603, 0.011191673576831818, 0.012461317703127861, 0.015191107057034969, 0.01070597767829895, 0.010973271913826466, 0.0068193147890269756, 0.0049874517135322094, 0.017178252339363098, 0.010455053299665451, 0.0056614815257489681, 0.0061624269001185894, 0.0063954503275454044, 0.0058386195451021194, 0.011285778135061264, 0.0069470382295548916, 0.0064622070640325546, 0.008975571021437645, 0.013010745868086815, 0.01030760258436203, 0.0085432808846235275, 0.024893729016184807, 0.009225030429661274, 0.011178488843142986, 0.0052152588032186031, 0.0080946935340762138, 0.0043073254637420177, 0.012935065664350986, 0.010005926713347435, 0.0076834503561258316, 0.0084586944431066513, 0.011964474804699421, 0.019230829551815987, 0.0090197641402482986, 0.012097151018679142, 0.013695467263460159, 0.0048110592179000378, 0.0082849655300378799, 0.0095759015530347824, 0.009903324767947197, 0.0050158640369772911, 0.0045615523122251034, 0.0048076789826154709, 0.0096716927364468575, 0.0040953122079372406, 0.0089415721595287323, 0.0046147014945745468, 0.0037960794288665056, 0.0061498233117163181, 0.0077360514551401138, 0.0066718999296426773, 0.010580370202660561, 0.0068897856399416924, 0.0082414131611585617, 0.010007028467953205, 0.0062204501591622829, 0.0057080956175923347, 0.0069445222616195679, 0.0070678112097084522, 0.0062863165512681007, 0.0059255850501358509, 0.0088705895468592644, 0.01116973627358675, 0.011661372147500515, 0.0093631157651543617, 0.010273337364196777, 0.0086727812886238098, 0.010403609834611416, 0.0075333486311137676, 0.0056549212895333767, 0.011525761336088181, 0.013502231799066067, 0.005814417265355587, 0.0072646536864340305, 0.0076606748625636101, 0.0066930647008121014, 0.010064894333481789, 0.011991617269814014, 0.0048315385356545448, 0.0094086490571498871, 0.0084826014935970306, 0.0029012269806116819, 0.0091762393712997437, 0.0056432550773024559, 0.010696281678974628, 0.0096827289089560509, 0.0082377344369888306, 0.0046695037744939327, 0.018505046144127846, 0.01052607037127018, 0.012086514383554459, 0.0056690769270062447, 0.014338578097522259, } };
const TfLiteAffineQuantization quant11 = { (TfLiteFloatArray*)&quant11_scale, (TfLiteIntArray*)&g0::quant6_zero, 3 };
const MODEL_SECTION(EI_MODEL_SECTION) ALIGN(16) int32_t tensor_data12[96] = { 6878, 3300, 779, -1148, 5331, 8526, 7328, 1384, -215, 10345, 910, -4572, 4488, 3091, 362, -476, 3132, 7150, -699, -95, 4767, 12075, 11083, -1443, -4088, -733, 13360, 157, 1488, 971, 9907, -2171, 6800, 2617, 5078, -3512, 605, -4460, 185, 2020, 3101, 1175, 1423, -392, 1039, 2328, 3213, 4509, 4526, 3127, 5148, 2249, -2271, 2394, 1075, 2647, 2262, 2291, 8470, 1134, -1028, 6218, 3602, 3704, 3143, 8333, -4908, 3092, 5470, -539, 7265, 1445, 4053, 3225, 3915, 2201, -356, 1608, 3123, 3561, 2479, 3609, 7551, 923, 2496, 3393, 809, -677, 15138, -328, 590, -1178, 11779, 3030, 7, -976, };
const TfArray<96, float> quant12_scale = { 96, { 0.00010587518772808835, 0.00011378619819879532, 0.00017799655324779451, 0.00019850167154800147, 0.00012616072490345687, 9.1766174591612071e-05, 0.00011024720879504457, 0.00018623046344146132, 0.00019581656670197845, 7.5646625191438943e-05, 0.0002262042835354805, 0.0001119461958296597, 0.00011556648678379133, 0.00014971323253121227, 0.00019871743279509246, 0.00015393720241263509, 0.00019342057930771261, 0.00010590449528535828, 0.00010617938823997974, 0.0001877462345873937, 0.00012726146087516099, 7.6467884355224669e-05, 8.0520512710791081e-05, 0.00019524605886545032, 0.0001405830989824608, 0.00016193591000046581, 6.6682383476290852e-05, 0.00013792533718515188, 0.00016970631259027869, 0.00018074062245432287, 8.3832688687834889e-05, 0.00012505018094088882, 0.00011232127872062847, 0.00018488989735487849, 0.00013996986672282219, 0.00017244362970814109, 0.00019775053078774363, 0.0001351524842903018, 0.00019869508105330169, 0.00015655490278732032, 0.00015245101531036198, 0.00022272327623795718, 0.00023763280478306115, 0.0002044867433141917, 0.00022823279141448438, 0.0001598852250026539, 0.00017314187425654382, 0.0001388806413160637, 0.00012724980479106307, 0.00016166955174412578, 0.0001409021788276732, 0.00017780443886294961, 0.000153156797750853, 0.00015426590107381344, 0.00020834978204220533, 0.00014951563207432628, 0.0001460430066799745, 0.00015537325816694647, 9.5675422926433384e-05, 0.00019867993250954896, 0.00021218406618572772, 0.00011392986198188737, 0.00016249030886683613, 0.00015605970111209899, 0.00017406005645170808, 9.2334237706381828e-05, 0.00011798279592767358, 0.00014123966684564948, 0.000108522035588976, 0.00022951042046770453, 9.7457290394231677e-05, 0.00013687532918993384, 0.00011123348667751998, 0.00012941009481437504, 0.00013129708531778306, 0.00013066045357845724, 0.00022289165644906461, 0.00021162489429116249, 0.00012514294940046966, 0.00014457781799137592, 0.00017490943719167262, 0.00012317122309468687, 0.00010386549547547475, 0.00014302287308964878, 0.00013474540901370347, 0.00019718549447134137, 0.00019123648235108703, 0.00033070231438614428, 6.3635990954935551e-05, 0.0002068765606964007, 0.00030527799390256405, 0.00018706120317801833, 7.4081872298847884e-05, 0.0001312846434302628, 0.00017685633793007582, 0.000130974076455459, } };
const TfLiteAffineQuantization quant12 = { (TfLiteFloatArray*)&quant12_scale, (TfLiteIntArray*)&g0::quant6_zero, 0 };
const MODEL_SECTION(EI_MODEL_SECTION) ALIGN(16) int8_t tensor_data13[96*1*1*16] = { 
  /* [0][0][][] */ -51,55,-14,-21,-26,-55,-67,-32,66,-49,48,-51,90,-117,7,-127, 
  /* [1][0][][] */ -92,64,-104,-99,-72,15,-22,55,-49,13,93,-55,45,127,18,33, 
  /* [2][0][][] */ -39,-11,-89,5,-13,-48,35,-44,-96,127,87,9,55,61,-39,120, 
  /* [3][0][][] */ -56,-76,10,-45,-82,6,-60,-123,-3,20,41,-70,-70,-33,-127,-42, 
  /* [4][0][][] */ 80,1,-22,45,-71,-15,-127,36,14,81,12,54,8,1,-43,-89, 
  /* [5][0][][] */ -99,44,-72,-36,63,-65,-27,-69,101,-18,5,-30,11,-106,-127,-86, 
  /* [6][0][][] */ -5,-41,-27,33,-98,69,48,-45,-18,-53,127,-18,-7,-12,-111,16, 
  /* [7][0][][] */ -34,98,127,-79,70,78,-2,-60,45,67,-92,-15,44,11,14,81, 
  /* [8][0][][] */ -55,6,46,-16,50,18,94,127,-63,-27,-57,-71,46,75,-62,-54, 
  /* [9][0][][] */ 40,45,96,32,-118,-42,-96,-117,73,12,127,26,-35,-106,56,-21, 
  /* [10][0][][] */ -6,-101,5,-69,-127,78,34,26,-37,-60,5,31,-10,47,-111,19, 
  /* [11][0][][] */ 124,-49,-19,102,-127,-24,68,-15,121,110,-41,38,33,-95,-8,111, 
  /* [12][0][][] */ -62,-61,127,-19,61,-18,29,58,68,-30,110,80,-24,11,-91,34, 
  /* [13][0][][] */ -1,-32,18,19,14,7,127,40,-107,13,4,14,-27,117,95,-68, 
  /* [14][0][][] */ 127,-71,115,12,59,67,105,52,67,60,51,30,72,-54,47,-51, 
  /* [15][0][][] */ -9,126,17,-46,42,127,-79,75,-52,-27,-39,-15,-41,127,-29,-58, 
  /* [16][0][][] */ -52,63,127,-54,32,89,5,-14,3,16,-22,49,87,-5,84,127, 
  /* [17][0][][] */ 16,104,88,-127,35,-49,-3,-72,-54,93,-29,68,-70,-23,100,-57, 
  /* [18][0][][] */ -95,-8,-69,-83,127,80,-45,-59,42,80,120,74,-9,115,-52,-14, 
  /* [19][0][][] */ 48,127,90,73,48,-27,-12,-12,-22,123,37,115,56,63,-59,42, 
  /* [20][0][][] */ 99,-6,11,74,-63,-10,-31,53,-23,-54,-127,-44,83,-54,25,-7, 
  /* [21][0][][] */ -100,-87,-17,112,-24,-2,-127,75,6,2,26,27,-42,37,-67,14, 
  /* [22][0][][] */ -3,4,-61,-58,127,-1,-29,61,64,71,52,71,-12,27,-7,39, 
  /* [23][0][][] */ -59,25,-21,18,8,51,91,73,-13,127,-18,-27,-9,34,-49,-34, 
  /* [24][0][][] */ 42,-77,42,-1,127,35,79,-39,57,17,52,37,-68,34,-2,-10, 
  /* [25][0][][] */ 127,-52,74,31,1,1,-27,83,119,-21,-49,1,127,-65,99,39, 
  /* [26][0][][] */ 53,36,116,87,89,-20,-78,-14,3,71,7,127,30,-68,23,-70, 
  /* [27][0][][] */ -68,25,-86,8,-17,97,17,-88,34,-91,127,31,30,-30,110,111, 
  /* [28][0][][] */ -38,31,-80,-127,36,-76,2,-51,-99,83,-53,30,-25,35,-27,68, 
  /* [29][0][][] */ 79,86,-75,38,34,78,-41,-18,51,54,6,64,-127,19,-25,77, 
  /* [30][0][][] */ -28,78,-123,-67,94,-47,5,18,-60,64,-76,-16,6,77,-23,127, 
  /* [31][0][][] */ 31,-124,96,40,71,-80,-94,34,-14,8,14,-42,-84,63,38,127, 
  /* [32][0][][] */ -62,60,2,31,-92,58,20,61,24,-127,35,-73,26,49,35,57, 
  /* [33][0][][] */ -69,1,70,97,-10,27,-47,10,-42,-48,12,-16,-8,-9,15,127, 
  /* [34][0][][] */ -19,3,-88,-93,65,-14,-5,69,15,-8,-3,-16,-53,-20,-32,127, 
  /* [35][0][][] */ 78,-11,17,-12,-1,13,-79,-20,-24,-127,-58,13,-4,-26,49,-24, 
  /* [36][0][][] */ 1,24,-119,-12,30,127,-17,42,-27,20,60,25,10,26,-73,50, 
  /* [37][0][][] */ 58,43,53,-57,53,-127,46,-28,-118,61,-81,-24,12,24,103,43, 
  /* [38][0][][] */ -27,127,28,-34,27,28,62,-90,6,-1,-99,28,-54,-91,-73,11, 
  /* [39][0][][] */ 77,41,-118,-127,-13,-28,20,-68,14,-1,-2,-36,58,9,-126,-79, 
  /* [40][0][][] */ -36,26,-69,-84,-53,-7,25,-127,-7,-15,7,-36,44,66,43,67, 
  /* [41][0][][] */ -27,-83,-10,127,-6,-17,-66,-16,-1,-50,75,-63,-62,-14,8,23, 
  /* [42][0][][] */ -24,67,-20,-127,16,22,12,-23,51,-7,-39,15,70,-22,-13,15, 
  /* [43][0][][] */ -1,35,13,23,127,20,24,11,16,31,-10,-73,-113,-48,-22,-19, 
  /* [44][0][][] */ 85,-13,34,48,-30,-6,6,32,28,-44,22,11,127,-2,-55,-29, 
  /* [45][0][][] */ 23,-76,-58,38,-41,-85,3,42,24,-25,15,31,-78,127,40,-28, 
  /* [46][0][][] */ -19,-75,53,65,-3,5,-90,53,33,-60,55,-21,40,62,82,127, 
  /* [47][0][][] */ -37,-55,14,70,2,-5,56,16,9,-65,-127,-31,42,-31,-62,20, 
  /* [48][0][][] */ -72,97,-13,-17,-6,68,-9,-118,22,-31,50,-54,52,-127,-44,13, 
  /* [49][0][][] */ -64,0,37,-38,8,-1,126,127,-34,-31,-14,27,-56,41,-59,35, 
  /* [50][0][][] */ 65,30,-86,43,30,-127,-44,-7,-86,54,-46,-8,27,-96,-113,-58, 
  /* [51][0][][] */ -55,46,-29,97,-28,38,-46,-68,-43,-87,4,-42,-6,40,-20,127, 
  /* [52][0][][] */ -127,3,15,-6,24,42,60,16,14,-81,-39,-41,-103,-54,-119,-4, 
  /* [53][0][][] */ -48,-76,-62,-127,-44,-11,8,82,41,-63,-45,28,-32,33,71,103, 
  /* [54][0][][] */ 18,-51,14,4,-70,69,54,-29,-13,-94,57,31,-28,-24,-127,43, 
  /* [55][0][][] */ -17,-31,-41,37,61,-21,66,94,-61,-62,-127,-37,67,-32,-24,45, 
  /* [56][0][][] */ 83,-26,-47,-17,-127,32,-120,-15,-12,-23,-36,17,98,-52,49,8, 
  /* [57][0][][] */ -42,11,22,-25,127,38,43,33,-39,46,-2,-9,-61,74,-96,-29, 
  /* [58][0][][] */ 24,-6,-3,-25,41,-17,-47,-53,47,-127,-67,3,-78,-44,-31,59, 
  /* [59][0][][] */ -57,-26,-13,17,5,43,-95,-47,67,127,-75,11,-23,11,-7,0, 
  /* [60][0][][] */ 21,-50,-2,13,-127,-50,31,8,-7,45,-18,44,5,-41,35,45, 
  /* [61][0][][] */ 14,36,-98,-18,-49,-17,-127,-93,-22,13,41,118,68,-62,108,58, 
  /* [62][0][][] */ 49,-11,53,-28,-16,41,49,127,-62,113,25,82,33,30,79,103, 
  /* [63][0][][] */ 17,-124,-9,-18,-64,8,41,-20,-11,-19,0,-9,-41,127,96,37, 
  /* [64][0][][] */ -14,-12,-127,-41,24,43,25,-13,-10,-91,39,-6,68,-30,-67,94, 
  /* [65][0][][] */ -13,-3,74,65,80,-16,95,95,-49,-12,-127,-76,38,109,-71,-8, 
  /* [66][0][][] */ -34,-127,-10,-103,-66,-127,45,-33,-3,-40,28,88,-67,-35,-69,80, 
  /* [67][0][][] */ -34,-85,-84,-34,-89,117,2,-127,-89,-32,-41,-94,26,-8,-67,46, 
  /* [68][0][][] */ 127,49,12,-15,-87,22,-63,-58,-89,-113,-16,-22,39,-20,81,-59, 
  /* [69][0][][] */ 42,0,39,-18,-9,-54,-45,30,-17,127,-28,8,-5,38,79,-21, 
  /* [70][0][][] */ 45,-8,-17,77,-114,34,-22,-97,100,127,29,68,41,-55,-11,27, 
  /* [71][0][][] */ 117,-86,80,102,-81,-46,37,-20,127,11,-58,51,72,-73,19,9, 
  /* [72][0][][] */ -11,-55,31,97,64,-9,-127,92,93,1,50,14,-49,-61,-80,84, 
  /* [73][0][][] */ 81,27,78,-117,63,-86,-82,50,-14,127,-40,14,6,-96,38,-40, 
  /* [74][0][][] */ 86,8,35,50,-127,-23,46,0,-70,-37,16,-33,30,-74,7,19, 
  /* [75][0][][] */ 85,127,-102,17,56,61,-18,-36,-23,-31,44,69,-103,47,61,75, 
  /* [76][0][][] */ -69,-39,-1,-42,-52,-7,91,-1,-60,25,91,43,-49,-127,-22,89, 
  /* [77][0][][] */ -65,127,-18,23,-60,-67,51,74,45,-70,-7,63,-25,48,-5,85, 
  /* [78][0][][] */ 122,50,-72,30,-96,43,-127,-26,-12,-16,-80,5,43,-113,30,71, 
  /* [79][0][][] */ -76,-48,119,50,-14,-109,-64,-43,-28,24,6,21,-73,127,-48,61, 
  /* [80][0][][] */ 55,98,29,-127,-16,26,92,-33,13,22,-44,20,89,-53,5,-3, 
  /* [81][0][][] */ 41,-74,11,-119,103,41,-12,127,110,27,-27,-54,-21,24,-103,-68, 
  /* [82][0][][] */ 93,57,90,-10,127,-93,36,50,4,105,-24,33,-2,-56,45,-108, 
  /* [83][0][][] */ -40,82,16,12,90,64,127,109,-7,54,-29,-69,-88,98,-60,-101, 
  /* [84][0][][] */ 6,-98,6,110,-5,-93,-87,32,-85,71,-77,-23,-127,61,-9,-58, 
  /* [85][0][][] */ -93,49,-43,0,-21,-51,-53,-38,-20,49,8,-66,-127,-76,-61,39, 
  /* [86][0][][] */ -7,59,95,126,30,-48,49,15,11,24,-49,-73,35,79,-127,-58, 
  /* [87][0][][] */ -20,44,127,-29,-92,-33,16,14,33,-21,6,46,-53,22,-10,-6, 
  /* [88][0][][] */ -31,-74,-114,30,38,35,-7,25,-15,-77,-103,-96,127,-18,6,48, 
  /* [89][0][][] */ 32,22,15,-124,6,-64,-50,46,127,-15,23,-103,9,-35,57,-80, 
  /* [90][0][][] */ -4,73,32,17,-39,44,40,113,14,-58,-11,127,54,5,-40,72, 
  /* [91][0][][] */ -52,9,-20,71,69,55,-37,-108,-42,35,-3,10,-95,-127,-53,-11, 
  /* [92][0][][] */ -38,75,13,-23,-127,11,-93,62,-35,51,111,88,-23,-33,59,16, 
  /* [93][0][][] */ 112,43,94,45,-127,-81,15,29,-24,-73,-27,-77,29,-50,-11,-4, 
  /* [94][0][][] */ -31,-127,23,-102,11,33,-24,3,81,-17,7,58,15,63,-43,41, 
  /* [95][0][][] */ -32,-53,-33,-56,109,116,-33,38,86,37,-64,61,-26,127,-68,46, 
};
const TfArray<96, float> quant13_scale = { 96, { 0.001425825641490519, 0.0015323635889217257, 0.0023970871698111296, 0.002673230366781354, 0.0016990118892863393, 0.0012358189560472965, 0.0014847038546577096, 0.0025079734623432159, 0.0026370699051767588, 0.0010187362786382437, 0.0030463025905191898, 0.0015075841220095754, 0.0015563387423753738, 0.0020161943975836039, 0.0026761360932141542, 0.0020730788819491863, 0.0026048030704259872, 0.0014262202894315124, 0.0014299222966656089, 0.0025283864233642817, 0.0017138354014605284, 0.0010297961998730898, 0.0010843730997294188, 0.0026293869595974684, 0.0018932385137304664, 0.0021807977464050055, 0.00089801452122628689, 0.0018574462737888098, 0.0022854420822113752, 0.0024340415839105844, 0.0011289783287793398, 0.0016840561293065548, 0.0015126353828236461, 0.0024899200070649385, 0.0018849801272153854, 0.0023223056923598051, 0.0026631148066371679, 0.001820104313082993, 0.0026758350431919098, 0.0021083315368741751, 0.0020530642941594124, 0.0029994237702339888, 0.0032002110965549946, 0.0027538316790014505, 0.0030736206099390984, 0.002153181005269289, 0.0023317090235650539, 0.0018703114474192262, 0.0017136784736067057, 0.0021772107575088739, 0.0018975356360897422, 0.0023944999556988478, 0.0020625691395252943, 0.0020775054581463337, 0.0028058553580194712, 0.0020135333761572838, 0.0019667672459036112, 0.002092418260872364, 0.0012884649913758039, 0.002675631083548069, 0.0028574918396770954, 0.0015342982951551676, 0.0021882639266550541, 0.0021016625687479973, 0.0023440741933882236, 0.0012434690725058317, 0.0015888792695477605, 0.0019020806066691875, 0.0014614708488807082, 0.0030908265616744757, 0.0013124614488333464, 0.0018433057703077793, 0.0014979860279709101, 0.0017427712446078658, 0.0017681834287941456, 0.0017596099060028791, 0.0030016913078725338, 0.0028499613981693983, 0.0016853053821250796, 0.0019470355473458767, 0.002355512697249651, 0.0016587520949542522, 0.0013987610582262278, 0.0019260951085016131, 0.001814622082747519, 0.0026555054355412722, 0.0025753898080438375, 0.0044535822235047817, 0.00085698859766125679, 0.0027860153932124376, 0.0041111917234957218, 0.002519161207601428, 0.00099766370840370655, 0.0017680157907307148, 0.0023817317560315132, 0.0017638334538787603, } };
const TfLiteAffineQuantization quant13 = { (TfLiteFloatArray*)&quant13_scale, (TfLiteIntArray*)&g0::quant6_zero, 0 };
const MODEL_SECTION(EI_MODEL_SECTION) ALIGN(16) int32_t tensor_data14[16] = { -27050, -2933, 3073, -12503, 12891, -13761, 24306, -8705, 12216, -9887, 14837, 12318, -1947, -33478, 963, 5353, };
const TfArray<16, float> quant14_scale = { 16, { 7.67684614402242e-05, 5.6646804296178743e-05, 6.4449253841303289e-05, 6.5892112615983933e-05, 8.1500023952685297e-05, 0.00014199825818650424, 5.1656799769261852e-05, 4.9851172661874443e-05, 9.4531409558840096e-05, 8.9120338088832796e-05, 0.00010915047460002825, 7.661650306545198e-05, 7.3389390308875591e-05, 7.7948163379915059e-05, 5.7800087233772501e-05, 6.2812170654069632e-05, } };
const TfLiteAffineQuantization quant14 = { (TfLiteFloatArray*)&quant14_scale, (TfLiteIntArray*)&g0::quant8_zero, 0 };
const MODEL_SECTION(EI_MODEL_SECTION) ALIGN(16) int8_t tensor_data15[16*1*1*96] = { 
  /* [0][0][][] */ 18,29,15,22,-18,-74,-8,-11,-19,-75,7,-9,61,-65,55,31,-84,-26,34,8,78,24,-74,12,-13,68,127,67,8,78,55,-34,3,-3,9,-28,29,21,-12,-3,110,15,20,-25,-6,-8,5,-37,22,-40,99,-8,-72,-8,41,32,-12,-45,5,16,-7,38,-64,-13,9,-1,69,33,5,-17,26,22,2,34,11,32,52,-31,52,16,-17,42,31,28,-54,6,-11,65,16,2,-88,-17,25,6,110,65, 
  /* [1][0][][] */ 19,38,-46,-12,-1,-47,93,-81,-73,-43,-66,-47,2,-48,-3,-53,-28,-24,-32,-18,-21,-96,115,-37,-4,20,0,59,-54,4,-41,13,-35,18,12,6,-27,51,-64,92,23,15,-5,-52,53,-69,-8,32,-89,-6,54,-114,-39,43,63,56,29,22,-71,14,-44,-1,-20,-15,32,24,111,3,-48,-127,9,-2,21,63,-27,33,-58,-28,109,-33,38,-19,51,-68,-32,-67,-14,10,-17,-50,31,0,77,-63,-35,52, 
  /* [2][0][][] */ 13,-18,19,-11,69,49,-50,25,-62,46,20,-24,35,-6,24,35,30,-27,-127,-17,-16,-42,-12,26,1,-18,-40,19,-37,-21,-19,63,-14,-37,-9,12,-45,27,-19,-24,75,11,7,40,8,54,10,-9,-83,3,-22,18,-31,54,9,-62,37,30,39,34,-29,-17,-19,57,40,-4,-33,-1,-7,-9,-21,-35,23,52,24,66,-53,-5,-30,-32,31,35,57,-13,-11,-39,-8,-51,-14,-32,-13,66,-6,-8,86,-38, 
  /* [3][0][][] */ 43,-42,-17,-107,-2,-25,112,-38,26,113,-84,-20,14,-28,-28,65,56,39,-21,16,-56,27,14,11,-51,78,51,-12,-48,-13,-62,63,5,-26,30,-29,5,-59,-27,67,5,7,-22,18,49,-56,-1,27,45,-33,35,-33,98,36,21,-7,-5,-17,-13,-51,-33,43,62,-9,-31,-31,127,-32,-31,-18,-45,21,8,-75,10,-74,11,-51,123,-6,-11,-61,-38,-50,-37,-46,74,72,-37,41,-58,-3,10,-88,-19,26, 
  /* [4][0][][] */ -27,74,28,8,-17,13,-39,-15,20,-29,6,-10,17,43,-18,21,-8,-47,-18,-69,35,-39,-59,14,-23,-36,-21,24,-34,127,-53,-16,3,-37,-1,-29,66,51,-30,-5,22,9,21,-34,-43,-3,53,-23,25,-11,-70,-5,-64,29,46,23,8,63,-17,25,-38,-78,-25,2,59,31,-72,-12,-4,-4,3,-65,-8,69,53,66,-29,16,-69,46,21,73,35,-57,49,-63,-28,-65,-44,-46,-55,-16,-6,15,34,-24, 
  /* [5][0][][] */ -8,-12,38,-17,-9,-25,-20,-3,34,11,-20,-3,-15,-28,18,-16,-12,2,-47,-35,-26,16,-19,12,18,-47,66,-22,-8,40,12,73,-8,-88,20,12,-37,-28,-31,5,-53,-4,-25,12,-1,18,-71,23,-16,13,52,-12,25,-68,0,18,-23,-55,6,-32,41,25,23,49,-41,6,113,-19,-5,-23,14,11,-5,24,38,7,-7,-9,127,41,-22,-16,-29,27,40,59,4,91,4,-32,-3,12,16,-18,-34,16, 
  /* [6][0][][] */ 31,-61,74,9,-43,121,-50,-106,-20,-81,-89,63,5,12,-33,99,8,44,13,-44,-89,-22,-91,-63,4,-58,-9,78,-127,51,-26,-32,48,95,-24,-7,-1,-38,24,-21,-65,42,38,-42,24,54,-106,-9,56,13,-94,-126,84,9,-43,-14,27,-26,24,-21,-21,-44,47,4,59,-78,-76,-60,-100,13,-17,-80,-29,-104,19,-114,93,15,-81,51,-32,91,29,-101,71,-43,-17,-1,-77,87,-85,95,45,-52,71,-107, 
  /* [7][0][][] */ -16,-17,-60,65,-25,3,35,-1,-102,-2,79,52,-3,-60,4,-39,-15,-2,4,0,-55,-21,-42,-38,65,49,-4,66,-2,26,25,31,-55,-127,32,106,-9,11,-44,10,-7,-14,7,-72,23,54,69,79,-19,42,-44,5,30,-47,39,-51,-20,30,-75,-26,62,9,10,-38,66,-55,111,-16,-58,-22,73,-1,-13,-34,-73,-27,24,-44,101,-39,0,-16,-78,-39,43,17,-78,41,-12,21,-1,30,68,-5,87,-8, 
  /* [8][0][][] */ -6,-55,7,3,-9,-7,25,-1,-7,0,46,49,16,34,-43,-6,73,-5,18,-2,-10,-74,-33,-16,-24,-35,74,6,-23,53,7,-31,-19,-3,-2,2,-44,-11,21,-31,-3,40,34,-41,17,-14,28,-10,38,3,45,7,-7,14,-40,-1,-12,114,-60,-3,-15,-66,-60,-6,-86,-32,-27,20,-8,7,35,-16,-24,-127,44,-103,15,17,-67,22,-29,-6,7,67,70,-63,-45,55,-42,90,16,-17,-58,5,-1,-58, 
  /* [9][0][][] */ -27,-28,-25,22,8,21,6,33,-40,-1,55,53,-23,49,21,-46,-22,32,-21,-37,-1,41,-7,11,-22,24,8,13,34,-9,18,-7,-11,-16,9,52,-24,-9,19,3,-13,-23,10,1,8,38,0,38,-44,7,-11,34,127,16,-15,0,12,-17,35,12,-25,5,74,6,10,19,64,7,35,-3,-16,23,2,-122,-34,-116,-32,-14,43,-4,-7,30,0,-42,37,11,-51,-1,-1,104,34,30,53,29,-14,25, 
  /* [10][0][][] */ 17,38,18,2,-14,15,-44,-26,61,4,-39,17,21,4,-9,-56,-33,-1,18,0,18,-9,-20,-27,8,-18,-94,35,-24,47,2,8,23,17,-15,6,9,-1,-1,5,35,-9,49,-46,-34,-7,16,23,14,-1,15,-23,-17,-15,-6,34,-16,5,-16,-11,-9,-32,-8,10,-6,-18,-82,-24,-46,-14,48,-21,-23,25,37,14,44,-22,-85,7,-11,26,-4,-8,3,5,-69,-127,-20,24,7,23,54,-34,15,24, 
  /* [11][0][][] */ 16,-36,6,6,-54,26,12,9,70,-14,-18,-35,17,12,16,-10,-24,44,19,-62,12,25,15,-27,32,11,58,0,24,-51,-32,17,19,94,-97,8,15,-9,59,9,-48,47,-15,12,-42,3,-9,-6,50,-15,-27,-17,-24,14,-71,86,-27,6,-7,-29,17,-2,-11,-58,-6,-40,-127,-72,-4,-37,-89,29,49,20,-8,3,36,56,-113,-34,-7,-7,-10,1,-18,-2,54,72,16,-50,12,11,-34,33,77,29, 
  /* [12][0][][] */ 16,21,-29,-20,14,-22,1,29,46,-40,15,-5,6,-20,-9,16,7,-39,-25,7,6,58,2,50,-42,-35,-127,-15,66,-29,30,-5,-14,-77,66,-8,27,-18,-9,23,-10,-53,8,27,37,-8,21,-18,-73,-7,-43,90,75,-22,26,-69,3,18,-42,-36,17,53,68,8,-18,-22,37,27,109,29,28,22,-1,-23,-7,-12,-39,-54,49,-69,18,-52,25,-43,0,1,5,-102,-4,29,-39,21,21,60,8,34, 
  /* [13][0][][] */ -18,23,-72,26,25,12,-14,14,30,68,-30,46,-50,-19,67,-52,12,54,63,18,-27,-46,-1,15,44,50,-19,29,16,36,51,-23,-14,66,2,50,19,-32,-49,-56,9,-11,21,20,45,53,-28,45,-47,41,-4,-1,-19,-36,60,41,19,-40,-16,-10,21,21,5,-23,15,91,127,42,20,-3,-48,-11,43,61,-82,61,24,-75,125,-37,-12,-29,29,7,29,63,-34,-18,-17,-28,7,48,42,19,65,56, 
  /* [14][0][][] */ -6,52,23,26,-59,-44,25,38,-74,-28,68,7,-73,-3,72,-23,-44,38,-57,26,-26,25,-100,15,-54,4,-57,-110,9,-2,25,80,-63,24,16,-17,-28,-72,-12,-40,23,-33,47,-26,-7,44,-71,28,-14,-48,85,24,-19,22,-30,29,-59,26,-1,38,38,60,-15,42,9,-50,6,-64,39,62,75,33,-57,37,10,18,25,-11,41,14,-73,115,-3,-127,84,-7,-5,8,-107,-23,-19,-2,-25,10,43,30, 
  /* [15][0][][] */ 77,-28,31,33,35,3,-17,-14,17,32,-57,-18,72,68,-11,-13,-1,13,-84,48,-1,-31,13,28,63,-40,88,21,39,-27,-47,67,70,49,-9,-78,70,66,66,58,84,37,-26,-1,-42,-122,38,-31,-28,-26,-14,-11,-10,-48,-29,54,-14,10,-20,23,0,-48,-34,40,40,46,-74,45,-9,-28,-2,-12,-4,-127,-47,-103,-22,27,-123,38,80,-39,48,27,-55,-4,-8,-25,39,87,19,-59,-25,-37,30,-45, 
};
const TfArray<16, float> quant15_scale = { 16, { 0.0033753984607756138, 0.0024906783364713192, 0.0028337407857179642, 0.0028971813153475523, 0.0035834384616464376, 0.0062434584833681583, 0.0022712750360369682, 0.0021918842103332281, 0.0041564097627997398, 0.0039184927009046078, 0.0047991890460252762, 0.0033687171526253223, 0.0032268257346004248, 0.0034272684715688229, 0.0025413865223526955, 0.0027617607265710831, } };
const TfLiteAffineQuantization quant15 = { (TfLiteFloatArray*)&quant15_scale, (TfLiteIntArray*)&g0::quant8_zero, 0 };
const MODEL_SECTION(EI_MODEL_SECTION) ALIGN(16) int32_t tensor_data16[96] = { 7014, -52, -5393, 6267, 1591, 715, 316, -1378, 1962, -3178, -948, -1541, 9452, -3749, -2325, -6643, 11, 387, -9429, -1396, -2299, 826, -7052, 1458, 14, 7994, -8643, -4939, -264, -3207, -564, -285, 18725, 709, -3237, -464, 764, 14428, 5248, 13181, -340, 5379, 1082, 5696, 574, 154, 9909, 2450, -5318, -254, -3729, -145, 245, -3913, -1269, 2242, -10, 2954, 197, 1670, -38, -1591, -1531, 8622, 7898, 784, 11165, 10906, 210, 719, 9979, -1269, 14, 744, -3203, -394, 17933, 10124, 10148, 13345, 15006, -1295, 10233, 9459, -706, -1982, 9226, -7287, 9403, -231, -7849, -2447, -1173, 1335, 21040, -1742, };
const TfArray<96, float> quant16_scale = { 96, { 0.00015132346015889198, 0.00027877822867594659, 0.0001905013486975804, 0.00017022609245032072, 0.00020913610933348536, 0.00046313251368701458, 0.00010995243792422116, 0.00022025499492883682, 0.00038930127630010247, 0.00031308692996390164, 0.00027639186009764671, 0.00018753306358121336, 0.0001072335071512498, 0.00015004437591414899, 0.00021204209770075977, 0.000170468061696738, 0.0002533318183850497, 0.00028540557832457125, 0.00012883145245723426, 0.00031990782008506358, 0.00025790647487156093, 0.00022886419901624322, 0.00010939584899460897, 0.00016659915854688734, 0.0018416809616610408, 0.00015869179333094507, 0.00024836524971760809, 0.00015954436094034463, 0.00025734707014635205, 0.00017489539459347725, 0.00017228802607860416, 0.00027191330445930362, 6.8216686486266553e-05, 0.0004891763674095273, 0.00013697684335056692, 0.00021378158999141306, 0.00031930912518873811, 8.7595035438425839e-05, 0.00018268860003445297, 0.00010188665328314528, 0.00070031458744779229, 0.00019090864225290716, 0.0002416044007986784, 0.00013762233720626682, 0.00015210261335596442, 0.00028707928140647709, 0.00015571089170407504, 0.00024513911921530962, 0.000189227081136778, 0.00040168754640035331, 0.00025003045448102057, 0.00022666798031423241, 0.00014107275637798011, 0.00025092498981393874, 0.00027015831437893212, 0.00030251886346377432, 0.00014677483704872429, 0.00041280477307736874, 0.00036377101787365973, 0.00033045595046132803, 0.00025868421653285623, 0.00026284248451702297, 0.00014681539323646575, 0.00011371548316674307, 0.00030439088004641235, 0.0004010808770544827, 0.00014162316801957786, 0.00012043117749271914, 0.00019779009744524956, 0.00031937609310261905, 0.00015546333452221006, 0.00025078747421503067, 0.00053464289521798491, 0.00017598779231775552, 0.00016568684077356011, 0.00021482644660864025, 7.0839938416611403e-05, 0.00016573247557971627, 0.00013378466246649623, 0.00015116474241949618, 7.9785029811318964e-05, 0.00030859903199598193, 0.00010037505126092583, 0.00030049620545469224, 8.4054961916990578e-05, 0.00027119918377138674, 0.00013567539281211793, 0.00020983601280022413, 0.00013043895887676626, 0.00023058796068653464, 0.00011248318332945928, 0.00025813464890234172, 0.00031384461908601224, 0.00015617636381648481, 8.1604754086583853e-05, 0.00028979181661270559, } };
const TfLiteAffineQuantization quant16 = { (TfLiteFloatArray*)&quant16_scale, (TfLiteIntArray*)&g0::quant6_zero, 0 };
const MODEL_SECTION(EI_MODEL_SECTION) ALIGN(16) int8_t tensor_data17[1*3*3*96] = { 
  /* [0][0][][] */ -29,-16,-5,-17,81,-4,32,-13,-4,-1,-8,-22,-23,9,-3,-24,-15,2,4,-10,-7,31,6,34,-1,-11,-32,-4,14,5,28,7,-13,-1,6,-24,-5,-63,-58,-16,1,-18,30,-27,-22,36,-56,-21,-17,5,-5,53,-65,5,42,-16,-1,-14,5,-12,-4,-7,1,-65,-15,-24,-38,-30,-20,20,-19,-4,29,7,-7,1,-25,2,127,-37,-118,13,-109,-21,-30,-21,25,15,-33,-12,23,-27,0,30,-11,10, -10,33,43,-66,-43,1,127,-51,0,-17,-32,15,-64,8,-88,69,-7,71,78,-24,-4,127,75,107,30,6,39,63,127,39,127,-27,-127,-21,-73,-30,-28,-91,127,-76,-25,-127,-15,-41,68,-32,-28,-9,48,2,23,127,-97,34,-79,-3,-91,-10,-5,29,-7,-120,-124,-75,-44,-2,-8,-93,-15,11,-82,112,-127,-10,6,-25,-127,-73,-9,-96,-127,9,26,-54,116,80,-60,30,-127,3,44,-12,13,127,-43,-82, -37,6,-9,2,47,-11,50,-23,-19,13,-7,5,-10,3,-4,-34,-17,-3,-13,-20,0,14,9,27,-1,-6,-1,-13,16,10,10,11,-18,-1,-17,62,-3,-80,-54,2,-5,-16,20,-12,-15,-24,-53,-26,-12,0,-9,40,-4,-4,5,-11,66,-22,5,-20,-6,-1,-45,-26,-19,-34,127,-28,-5,15,12,13,23,11,1,20,-24,39,-45,-25,-95,5,-125,-19,5,-28,9,-13,-43,-29,18,52,5,27,-13,17, 
  /* [0][1][][] */ -74,-12,32,-51,41,102,-32,-14,-2,-18,-22,-30,-127,25,25,78,-15,38,98,24,24,-21,107,-33,40,19,54,14,-17,5,0,-16,-115,-19,77,-16,-11,-127,-71,-127,-18,-13,79,-30,-81,127,-86,-83,63,69,18,-41,-126,74,69,-30,31,-30,36,-13,7,0,106,-81,-28,10,-24,-73,-16,-12,-127,12,74,127,8,-72,-101,-70,-68,-59,-82,-4,-32,-60,44,25,-101,68,-71,127,90,-76,127,1,-63,-5, 78,127,127,127,-127,-127,100,-60,127,127,-71,-76,-88,127,-26,127,127,-127,127,127,127,-83,88,-127,-127,-127,127,127,-123,127,-19,127,-59,127,127,-94,127,75,2,-32,127,9,-127,-107,127,-25,127,127,127,-127,127,-111,112,127,-127,127,-127,127,-127,127,-106,127,114,-127,127,127,-17,127,-117,-127,-27,-127,19,123,127,75,10,-127,92,-127,61,127,127,127,127,72,-127,127,-77,46,2,-20,-84,-25,-127,-30, -127,-29,36,-58,-2,59,-52,1,-34,-18,-1,127,-117,18,26,60,-28,45,62,11,13,-18,72,-32,40,9,40,4,-16,-1,21,-22,-94,-35,79,127,-4,-105,-95,-94,-32,-10,19,-46,-66,-70,-87,-112,35,76,-2,-21,127,14,97,-49,108,-29,52,-47,-5,-25,-127,-22,-58,-13,-51,-79,-25,1,-109,3,39,-94,11,127,-76,-32,-63,15,-89,-18,-69,-81,-6,32,-90,50,-25,-75,127,127,-36,-22,-84,-4, 
  /* [0][2][][] */ -7,-46,-14,-25,28,-6,-10,20,-13,-1,35,-36,54,7,-5,-31,0,-10,-44,-16,-16,-21,21,-31,4,-17,-17,2,4,-6,-21,2,-5,-4,10,-21,-9,-42,-24,-31,-21,-13,19,8,15,12,-64,-4,-32,5,-14,-22,-17,-29,34,-15,3,-21,8,-21,-3,25,15,-9,-40,-29,119,26,23,19,3,0,-4,-19,-11,-28,-18,17,-32,-32,-42,-1,-89,-21,-1,0,52,-11,-2,9,-18,-11,-8,-13,-34,-6, -10,-65,30,-108,-45,0,44,127,-58,54,127,-34,-61,29,127,80,-8,-35,70,-45,-26,-43,127,5,19,-18,32,17,-9,1,-87,-49,-83,-32,-80,-12,-96,-107,47,-84,-17,-85,-42,127,20,-22,-55,-7,24,-6,-5,-13,66,28,-48,-45,-46,-51,45,-59,127,33,101,2,-86,-57,-26,-51,127,23,-37,16,21,-34,15,-22,-25,-40,3,39,-110,-28,-91,-73,53,-127,1,6,-21,-4,32,6,17,-116,-85,127, -9,9,-10,-10,17,-9,-4,17,-22,-8,16,33,59,4,-4,-34,-4,8,-25,-23,-12,-13,18,-20,-3,-11,-6,-3,-2,3,-27,-1,-6,0,9,-6,-12,-58,-34,-10,-29,13,-7,-3,14,-11,-66,6,-30,-3,-8,-17,12,-35,31,-18,60,-14,10,-26,-1,25,-20,27,-26,-31,-25,20,22,7,-12,1,-53,-37,-13,-10,-29,6,101,-11,-15,-5,-67,-6,-13,7,50,-3,10,-8,-22,22,7,-19,-27,-9, 
};
const TfArray<96, float> quant17_scale = { 96, { 0.0067511354573071003, 0.012437393888831139, 0.0084990151226520538, 0.0075944564305245876, 0.0093303853645920753, 0.020662164315581322, 0.0049054110422730446, 0.00982644222676754, 0.017368262633681297, 0.01396804116666317, 0.012330928817391396, 0.0083665885031223297, 0.0047841090708971024, 0.0066940700635313988, 0.0094600329175591469, 0.0076052513904869556, 0.011302129365503788, 0.012733066454529762, 0.0057476782239973545, 0.014272347092628479, 0.011506223119795322, 0.010210532695055008, 0.0048805796541273594, 0.0074326442554593086, 0.082164637744426727, 0.0070798657834529877, 0.011080551892518997, 0.0071179019287228584, 0.011481266468763351, 0.007802771870046854, 0.0076864473521709442, 0.012131122872233391, 0.0030434150248765945, 0.021824084222316742, 0.0061110761016607285, 0.0095376381650567055, 0.014245636761188507, 0.0039079594425857067, 0.0081504574045538902, 0.0045455647632479668, 0.031243791803717613, 0.0085171861574053764, 0.010778923518955708, 0.006139873992651701, 0.0067858966067433357, 0.012807737104594707, 0.0069468757137656212, 0.010936621576547623, 0.0084421653300523758, 0.017920862883329391, 0.011154842562973499, 0.010112551040947437, 0.0062938109040260315, 0.011194751597940922, 0.012052826583385468, 0.013496557250618935, 0.0065482030622661114, 0.018416846171021461, 0.016229256987571716, 0.014742940664291382, 0.011540921404957771, 0.011726438067853451, 0.0065500126220285892, 0.0050732954405248165, 0.013580075465142727, 0.017893796786665916, 0.0063183670863509178, 0.0053729088976979256, 0.0088241947814822197, 0.014248625375330448, 0.0069358316250145435, 0.011188616044819355, 0.023852525278925896, 0.0078515084460377693, 0.0073919421993196011, 0.009584253653883934, 0.0031604485120624304, 0.0073939780704677105, 0.005968660581856966, 0.0067440541461110115, 0.003559524193406105, 0.013767817988991737, 0.004478126298636198, 0.013406318612396717, 0.0037500227335840464, 0.01209926325827837, 0.0060530132614076138, 0.0093616107478737831, 0.005819395650178194, 0.010287436656653881, 0.0050183176063001156, 0.01151640247553587, 0.014001843519508839, 0.0069676423445343971, 0.0036407094448804855, 0.012928754091262817, } };
const TfLiteAffineQuantization quant17 = { (TfLiteFloatArray*)&quant17_scale, (TfLiteIntArray*)&g0::quant6_zero, 3 };
const MODEL_SECTION(EI_MODEL_SECTION) ALIGN(16) int32_t tensor_data18[96] = { 1478, 9763, 455, 2078, 4600, 17199, 201, 2398, 15483, -1133, 18458, 4850, 1907, 643, 7071, 524, 3550, 5839, -276, 11767, 1241, 8623, -1489, 2358, -9391, 2017, 3379, 2550, 7505, 1626, 4474, 4058, 2257, 17443, 3864, 5280, 6165, 2482, 5049, 2498, 24446, 2230, 3733, 1842, 4049, 11947, 8614, 6879, 1308, -1211, 1860, 7308, 3465, -2422, 8315, 211, 2382, 19478, 1524, 2638, 2741, 9358, 4675, -273, 26341, 18206, 2556, 4271, 7614, 7003, 3019, 1936, -4932, 5862, 2615, 4085, 370, 13943, 5285, 8242, 2940, 1587, 5063, 21156, -79, 10707, 7988, 2114, -844, 3205, 1908, 14420, 3730, 3528, 5854, 7459, };
const TfArray<96, float> quant18_scale = { 96, { 0.00020436618069652468, 8.0231147876475006e-05, 0.00020187642076052725, 0.00018835428636521101, 0.00014129662304185331, 5.3341318562161177e-05, 0.00018096964049618691, 0.00012973629054613411, 5.6220436817966402e-05, 0.00013345565821509808, 4.5473898353520781e-05, 0.00010371761163696647, 0.0001554840273456648, 0.0003040958836209029, 7.8801705967634916e-05, 0.00011188782809767872, 0.0001712679659249261, 0.00010603960254229605, 0.00012608783436007798, 7.4003131885547191e-05, 0.00020396136096678674, 8.8207263615913689e-05, 0.00014967260358389467, 0.00011688674567267299, 7.9975929111242294e-05, 0.00010364608169766143, 0.00014157748955767602, 0.00014509922766592354, 0.00011549900227691978, 0.00016568972205277532, 0.00012492193491198123, 0.00012974956189282238, 0.00018095147970598191, 5.0774724513757974e-05, 0.00012806081213057041, 0.00011418403300922364, 0.00010014299914473668, 0.00017653794202487916, 0.00010161958925891668, 0.00016803947801236063, 3.8853657315485179e-05, 0.00013072055298835039, 0.0001038899426930584, 9.3346629000734538e-05, 8.9782901341095567e-05, 7.0796988438814878e-05, 8.100560080492869e-05, 0.00011025217827409506, 0.00022213299234863371, 0.00019483879441395402, 0.00019827428332064301, 9.49985405895859e-05, 0.0001348966034129262, 0.00015864281158428639, 8.6857784481253475e-05, 0.00024406272859778255, 0.00014018047659192234, 4.6260818635346368e-05, 0.00012200572382425889, 0.00011702605115715414, 0.00015481523587368429, 8.841000817483291e-05, 0.00012722502287942916, 0.00015646411338821054, 3.6846708098892123e-05, 5.0563587137730792e-05, 0.00016909436089918017, 0.00013731248327530921, 0.00010435708099976182, 7.4809453508350998e-05, 0.00016946076357271522, 0.00011645646009128541, 0.00011508417810546234, 0.0001083990719052963, 0.00014093102072365582, 0.00015239142521750182, 0.00017534541257191449, 5.9022495406679809e-05, 0.00011259224993409589, 0.00010414053394924849, 0.0001392387057421729, 0.00011510673357406631, 9.8836273537017405e-05, 4.5793523895554245e-05, 9.4404480478260666e-05, 6.7583729105535895e-05, 8.9502063929103315e-05, 0.00018248245760332793, 0.00017377943731844425, 0.00017048271547537297, 0.00011156628170283511, 5.8388570323586464e-05, 0.00013045970990788192, 0.00011881932005053386, 9.0252658992540091e-05, 8.7793028797022998e-05, } };
const TfLiteAffineQuantization quant18 = { (TfLiteFloatArray*)&quant18_scale, (TfLiteIntArray*)&g0::quant6_zero, 0 };
const MODEL_SECTION(EI_MODEL_SECTION) ALIGN(16) int8_t tensor_data19[96*1*1*16] = { 
  /* [0][0][][] */ 40,-1,1,68,-127,-33,99,58,64,93,-29,43,8,9,38,93, 
  /* [1][0][][] */ -29,36,-99,-3,127,111,-1,-2,-25,11,-55,36,-62,90,-58,-34, 
  /* [2][0][][] */ -42,61,84,-2,68,88,4,41,42,-3,37,-21,51,-127,-12,8, 
  /* [3][0][][] */ 127,-27,30,4,25,25,-17,16,40,30,-54,-27,-38,41,-23,48, 
  /* [4][0][][] */ -91,-17,1,31,-115,-1,-100,-37,-5,41,-9,-61,-29,37,-51,127, 
  /* [5][0][][] */ -86,9,39,17,127,23,0,13,-41,31,-23,11,-66,49,-94,-32, 
  /* [6][0][][] */ -127,24,-39,25,-11,-66,77,14,5,-32,-56,37,15,-3,-44,10, 
  /* [7][0][][] */ -7,110,60,-91,70,46,127,15,52,1,-1,52,92,35,-39,8, 
  /* [8][0][][] */ -29,-23,-57,60,-53,83,-43,-74,32,-37,77,39,127,38,-103,0, 
  /* [9][0][][] */ -18,-127,-16,79,-38,-75,-11,63,60,59,8,79,-74,18,0,-46, 
  /* [10][0][][] */ -51,-58,-90,50,-97,127,44,-83,20,-61,46,-38,45,99,-90,67, 
  /* [11][0][][] */ -42,-88,-39,25,-15,84,40,0,12,5,44,-87,9,99,-98,127, 
  /* [12][0][][] */ -33,-96,-86,90,-98,-127,17,64,78,67,-31,103,-7,-58,-29,-2, 
  /* [13][0][][] */ -67,-19,-39,-4,-20,1,36,18,-21,127,-6,-24,38,37,20,-8, 
  /* [14][0][][] */ -127,-23,-61,-60,-29,86,-18,-102,120,-74,74,-7,87,-65,-95,-81, 
  /* [15][0][][] */ 5,-127,96,-53,-57,-36,6,59,16,-51,-91,-36,86,-42,-24,-48, 
  /* [16][0][][] */ -27,-39,27,-36,37,28,-23,-22,70,-127,35,-16,-6,7,-85,-100, 
  /* [17][0][][] */ -31,-1,30,-73,25,1,-33,7,104,-73,27,72,127,-85,-36,-127, 
  /* [18][0][][] */ 74,2,-35,-122,10,-34,123,-47,32,68,-9,69,-14,84,-6,-127, 
  /* [19][0][][] */ -43,-29,-23,-62,-113,49,-7,-12,28,-53,29,-127,-10,-30,-28,-12, 
  /* [20][0][][] */ 12,66,62,-94,58,-1,-43,88,-103,-127,33,-81,-32,101,-17,-7, 
  /* [21][0][][] */ 4,-112,-115,-15,87,54,83,112,-68,-89,-24,30,127,-112,-24,37, 
  /* [22][0][][] */ 72,-1,89,-1,-6,-1,64,30,16,126,31,22,-6,-8,127,-11, 
  /* [23][0][][] */ -121,-60,-26,54,56,53,24,11,-8,2,9,-85,6,58,58,127, 
  /* [24][0][][] */ 14,-16,42,34,17,-90,9,-61,24,127,-115,79,-21,-64,80,-77, 
  /* [25][0][][] */ 127,-67,112,110,53,6,-22,32,-113,94,52,-58,-21,28,72,-23, 
  /* [26][0][][] */ -26,24,9,45,-56,119,-19,41,-60,-35,-84,33,0,24,43,-127, 
  /* [27][0][][] */ 39,-1,-4,-50,-53,-1,-86,10,-112,-27,-68,-43,-74,44,-17,127, 
  /* [28][0][][] */ -70,18,28,-3,20,-7,-127,9,-2,-39,-5,-14,14,-53,-79,-28, 
  /* [29][0][][] */ -22,-117,-30,100,-34,13,127,7,80,53,-106,67,35,-25,-45,82, 
  /* [30][0][][] */ 36,-58,-56,2,-127,34,60,-27,15,-11,-3,-28,-9,43,-14,78, 
  /* [31][0][][] */ -127,-11,15,99,-39,13,-48,-9,-30,-57,12,-30,-19,-61,-23,91, 
  /* [32][0][][] */ -127,-77,-97,-6,-93,-46,6,-18,113,52,-49,-63,40,43,29,-12, 
  /* [33][0][][] */ -13,4,-103,37,-127,-93,57,-3,-122,17,-64,-63,-22,110,72,75, 
  /* [34][0][][] */ 27,67,-2,30,-73,-37,40,3,16,-127,-13,31,-27,-9,39,81, 
  /* [35][0][][] */ 40,-8,-69,-15,-127,13,93,-26,26,41,-17,-14,22,69,31,73, 
  /* [36][0][][] */ -13,-11,-60,55,127,-17,53,80,-93,8,-87,-89,33,-27,9,37, 
  /* [37][0][][] */ -127,59,-9,-81,42,-90,-37,-38,-13,-28,-19,50,65,-84,17,-122, 
  /* [38][0][][] */ 36,113,26,-79,-109,-59,-127,-61,-45,-70,58,69,-69,-99,79,-1, 
  /* [39][0][][] */ -1,-58,14,75,22,65,70,-36,-15,53,6,-20,-22,127,45,107, 
  /* [40][0][][] */ 114,47,96,114,-57,-53,4,21,-83,63,-7,-22,-46,-35,127,-2, 
  /* [41][0][][] */ -19,-5,16,53,-102,116,5,51,-63,25,-108,8,27,28,57,-127, 
  /* [42][0][][] */ 3,-103,27,-25,127,40,75,14,-34,-113,-102,-23,-9,-17,-7,38, 
  /* [43][0][][] */ -47,-90,-56,18,119,12,4,101,-88,-82,-126,-97,127,-3,-59,74, 
  /* [44][0][][] */ -32,-58,-71,-99,31,73,77,18,-36,-127,-71,77,-38,49,33,112, 
  /* [45][0][][] */ -11,-68,-83,-19,-127,77,-34,-65,66,-43,26,-55,-5,25,-39,52, 
  /* [46][0][][] */ 25,-91,-10,7,92,-80,-21,100,-1,-24,42,65,-56,-54,58,-127, 
  /* [47][0][][] */ -66,-33,-3,84,1,1,25,37,5,127,70,87,-37,72,-3,85, 
  /* [48][0][][] */ 43,-14,-85,-88,34,-68,8,58,46,-80,0,29,-60,11,-42,-127, 
  /* [49][0][][] */ 55,39,5,36,-12,-24,52,46,-33,127,-33,40,-41,-23,71,93, 
  /* [50][0][][] */ 2,4,13,9,-127,-14,-8,-51,52,18,22,49,-18,-65,13,-1, 
  /* [51][0][][] */ 9,-13,-4,-127,-18,101,41,-42,13,0,25,-46,74,78,-24,21, 
  /* [52][0][][] */ 30,-16,-6,-85,75,-117,-9,-40,36,-3,127,-60,31,1,-26,88, 
  /* [53][0][][] */ -40,-56,49,-27,-44,-127,23,-103,-4,83,-87,80,-29,-17,34,-77, 
  /* [54][0][][] */ 63,71,45,-16,-127,-44,-93,-100,-8,17,52,76,-75,-45,62,7, 
  /* [55][0][][] */ 13,9,-35,67,-32,27,35,-18,7,127,16,60,1,4,-3,43, 
  /* [56][0][][] */ 48,-112,-73,96,-84,41,-2,64,127,9,69,49,-31,-44,49,103, 
  /* [57][0][][] */ 66,31,106,-97,93,-4,-19,-4,107,-34,21,127,65,-62,114,-71, 
  /* [58][0][][] */ 79,-62,18,-66,41,22,-4,127,53,100,-7,61,48,11,81,-4, 
  /* [59][0][][] */ -44,47,20,-48,-11,-94,6,6,-7,12,-106,-106,-127,-60,87,-5, 
  /* [60][0][][] */ 47,-21,19,20,8,-26,9,-49,21,127,-8,67,-13,-24,-16,-26, 
  /* [61][0][][] */ 67,61,18,-16,-74,-127,-23,-67,-53,-8,-21,13,-72,-48,74,73, 
  /* [62][0][][] */ -18,97,-33,52,-60,127,-57,27,-68,15,-46,29,-42,37,70,-102, 
  /* [63][0][][] */ 40,-3,-75,-127,-20,-55,79,-14,-5,-101,-28,35,-43,75,38,-29, 
  /* [64][0][][] */ -36,18,9,-29,55,-62,32,92,-127,-17,-74,-35,-34,97,69,69, 
  /* [65][0][][] */ -57,-5,-51,-23,59,32,-37,-79,-127,-59,14,-30,-123,107,-49,51, 
  /* [66][0][][] */ -19,55,-5,33,-41,127,-27,23,-62,26,-34,45,-32,53,49,-90, 
  /* [67][0][][] */ 13,-24,-52,-31,11,-93,74,-98,-12,28,14,127,-70,-21,-26,-124, 
  /* [68][0][][] */ 16,-127,-23,81,-6,-5,17,91,44,46,56,15,-71,38,-8,-14, 
  /* [69][0][][] */ 10,78,89,-115,54,8,-31,93,38,101,53,86,96,-101,32,-127, 
  /* [70][0][][] */ 51,24,51,-30,107,1,-106,-47,-127,-93,-6,46,-42,72,-107,-2, 
  /* [71][0][][] */ -30,-64,27,-55,63,-5,49,31,-93,77,-127,-56,25,83,-27,57, 
  /* [72][0][][] */ 22,24,66,16,-67,-37,-119,-74,-14,71,-26,63,25,114,-127,-4, 
  /* [73][0][][] */ 3,-31,-23,-43,35,-115,28,-43,75,84,109,-8,16,-19,-65,127, 
  /* [74][0][][] */ 3,-2,-33,83,-78,-1,93,29,87,68,23,120,127,30,-65,10, 
  /* [75][0][][] */ -25,45,-23,42,-58,127,-20,24,-39,28,-39,44,-20,51,27,-70, 
  /* [76][0][][] */ -72,85,-62,41,-105,-3,-4,19,52,46,-46,-43,49,-46,-127,40, 
  /* [77][0][][] */ 127,126,-123,124,79,90,85,45,47,9,115,-48,92,30,68,27, 
  /* [78][0][][] */ 18,-33,5,-58,64,-125,31,-54,50,45,127,-21,11,-20,-39,117, 
  /* [79][0][][] */ -36,62,8,19,-3,-46,-37,-7,-127,-5,52,9,111,39,-82,-49, 
  /* [80][0][][] */ -91,20,72,-3,68,55,0,-127,-84,54,-69,-50,-11,-86,27,71, 
  /* [81][0][][] */ 85,82,-29,-6,27,-22,87,113,-113,122,-59,-42,-50,30,121,127, 
  /* [82][0][][] */ 52,114,-39,-71,-18,-49,118,-103,20,16,-57,81,127,-11,63,-47, 
  /* [83][0][][] */ 3,-35,25,23,1,24,-32,-101,61,-33,88,10,39,-70,-50,-127, 
  /* [84][0][][] */ -127,-78,-47,-17,-7,99,92,3,93,69,106,103,53,97,-76,18, 
  /* [85][0][][] */ 100,-6,91,-77,81,2,-35,80,17,127,-64,3,-44,67,107,12, 
  /* [86][0][][] */ -71,73,-37,-5,27,84,23,12,86,36,127,-23,-21,57,-4,-18, 
  /* [87][0][][] */ 6,-61,22,-42,47,-127,25,-29,48,-9,62,-36,30,-39,-44,71, 
  /* [88][0][][] */ -92,64,36,-13,121,-22,45,22,-63,-76,104,-80,73,127,106,-125, 
  /* [89][0][][] */ -19,42,-8,33,-38,127,-13,28,-49,9,-36,19,-6,53,28,-90, 
  /* [90][0][][] */ 57,-77,21,28,127,-5,53,26,-16,-100,-121,-25,-9,-9,-59,31, 
  /* [91][0][][] */ -19,58,-33,-51,9,-76,-95,33,-77,21,-115,-127,-123,-77,-9,23, 
  /* [92][0][][] */ 62,51,64,40,-127,-80,23,6,-27,26,-20,-27,-23,-77,20,-2, 
  /* [93][0][][] */ 6,-127,-106,78,-52,-67,-15,121,90,64,1,67,-62,60,-4,-33, 
  /* [94][0][][] */ 108,6,127,-25,32,-39,14,39,36,97,-6,64,13,13,126,-18, 
  /* [95][0][][] */ -51,-48,-17,-18,127,-13,37,76,-36,-8,-110,-61,13,6,-58,26, 
};
const TfArray<96, float> quant19_scale = { 96, { 0.0044322153553366661, 0.0017400223296135664, 0.0043782182037830353, 0.0040849554352462292, 0.0030643870122730732, 0.0011568460613489151, 0.0039248000830411911, 0.0028136707842350006, 0.0012192872818559408, 0.0028943351935595274, 0.00098622043151408434, 0.0022493877913802862, 0.003372078062966466, 0.0065951147116720676, 0.0017090211622416973, 0.0024265802931040525, 0.0037143940571695566, 0.0022997462656348944, 0.0027345444541424513, 0.0016049515688791871, 0.004423435777425766, 0.0019130052533000708, 0.0032460419461131096, 0.0025349948555231094, 0.001734487246721983, 0.0022478364408016205, 0.0030704783275723457, 0.0031468563247472048, 0.002504898002371192, 0.003593415254727006, 0.002709259046241641, 0.0028139585629105568, 0.0039244061335921288, 0.0011011827737092972, 0.0027773338370025158, 0.0024763795081526041, 0.0021718628704547882, 0.0038286871276795864, 0.0022038866300135851, 0.0036443755961954594, 0.00084264320321381092, 0.0028350171633064747, 0.0022531251888722181, 0.0020244659390300512, 0.0019471771083772182, 0.001535417977720499, 0.0017568183830007911, 0.0023911069147288799, 0.0048175351694226265, 0.0042255888693034649, 0.0043000965379178524, 0.0020602918229997158, 0.0029255857225507498, 0.0034405842889100313, 0.0018837383249774575, 0.0052931387908756733, 0.0030401803087443113, 0.001003286917693913, 0.0026460133958607912, 0.002538016065955162, 0.0033575734123587608, 0.0019174022600054741, 0.0027592075057327747, 0.003393333638086915, 0.0007991172606125474, 0.0010966036934405565, 0.0036672537680715322, 0.002977980300784111, 0.002263256348669529, 0.0016224387800320983, 0.0036752000451087952, 0.0025256630033254623, 0.0024959014263004065, 0.0023509175516664982, 0.0030564579647034407, 0.0033050067722797394, 0.0038028240669518709, 0.0012800572440028191, 0.0024418574757874012, 0.0022585599217563868, 0.0030197554733604193, 0.0024963906034827232, 0.0021435231901705265, 0.00099315238185226917, 0.0020474081393331289, 0.0014657300198450685, 0.0019410864915698767, 0.0039576096460223198, 0.0037688617594540119, 0.0036973636597394943, 0.0024196067824959755, 0.0012663089437410235, 0.0028293600771576166, 0.0025769078638404608, 0.0019573650788515806, 0.001904021599330008, } };
const TfLiteAffineQuantization quant19 = { (TfLiteFloatArray*)&quant19_scale, (TfLiteIntArray*)&g0::quant6_zero, 0 };
const MODEL_SECTION(EI_MODEL_SECTION) ALIGN(16) int32_t tensor_data20[16] = { -5531, 11942, -18237, 1005, 10962, -15050, -40214, -9462, -6415, 6733, -15726, -11988, 6859, -12161, -3260, -3360, };
const TfArray<16, float> quant20_scale = { 16, { 0.000159477858687751, 0.00014402180386241525, 0.00013502343790605664, 0.00018866761820390821, 0.00012272600724827498, 0.00013357013813219965, 0.00010128886060556397, 0.00013895452138967812, 0.00012469739886000752, 9.2183319793548435e-05, 0.000184900316526182, 0.00014056811050977558, 0.00014396040933206677, 8.9197972556576133e-05, 0.00015111549873836339, 0.0001295484253205359, } };
const TfLiteAffineQuantization quant20 = { (TfLiteFloatArray*)&quant20_scale, (TfLiteIntArray*)&g0::quant8_zero, 0 };
const MODEL_SECTION(EI_MODEL_SECTION) ALIGN(16) int8_t tensor_data21[16*1*1*48] = { 
  /* [0][0][][] */ 22,44,21,-35,70,68,-46,54,-16,118,7,49,-37,37,-19,42,37,85,39,-65,-68,76,-10,50,60,49,43,55,-46,-47,-5,87,-27,8,-68,55,47,-127,-32,14,12,-30,59,-7,-8,-57,-59,-14, 
  /* [1][0][][] */ -48,6,-79,-46,9,91,-62,16,-8,-36,-48,35,62,-20,-29,-23,-28,-37,-9,21,-73,51,-111,-52,-51,-42,51,68,-27,-27,45,-47,16,-65,-41,56,18,-62,127,-41,-26,28,-51,-13,32,52,31,22, 
  /* [2][0][][] */ 7,1,56,-34,-16,-75,21,22,102,75,-68,10,105,-45,127,83,-71,-26,-32,27,80,-77,-29,-94,9,-35,32,-68,40,40,-45,16,29,-26,55,37,-60,8,-2,-28,35,30,64,-11,22,-79,88,-58, 
  /* [3][0][][] */ 41,8,-20,-26,30,106,12,-22,41,-48,21,-21,-46,4,9,43,-43,-67,32,-118,-14,3,-30,-22,-36,88,127,59,-11,-36,29,38,64,-33,89,38,-40,-55,-3,36,27,12,-17,1,22,17,-8,-19, 
  /* [4][0][][] */ 91,-14,2,-48,91,87,54,16,62,-12,-100,28,37,-15,16,-15,-98,-117,-20,-90,-15,18,-34,-27,-89,127,-106,123,-57,-59,24,75,32,-45,20,-34,-10,9,-21,33,-48,-9,0,46,-47,100,-28,-59, 
  /* [5][0][][] */ 4,-1,-56,4,-16,55,18,-27,67,54,36,90,54,-26,34,0,-43,127,-19,40,7,2,-69,-17,40,-4,-63,-39,-15,31,16,-21,-35,0,41,19,-45,4,-90,4,93,-23,27,47,-16,5,-40,35, 
  /* [6][0][][] */ 54,8,12,72,9,-22,102,-49,-2,64,127,103,41,49,-50,52,37,-37,-72,85,51,-66,-39,61,-88,89,81,-3,110,49,-28,-3,89,-57,-111,-8,93,37,6,5,13,60,59,-33,68,120,35,-6, 
  /* [7][0][][] */ -97,-1,-25,24,-59,-53,20,52,74,113,-51,-71,-98,8,-19,-18,-79,99,5,120,-48,40,22,40,-15,-89,-28,-76,30,40,-6,4,-13,15,17,-14,2,-58,127,14,7,40,27,-17,53,64,-25,3, 
  /* [8][0][][] */ -10,-97,50,-65,66,-56,76,-40,-26,-122,32,10,-29,6,34,26,2,11,-44,99,8,37,-17,31,62,-12,-67,-31,-127,-25,-53,-111,5,-69,7,81,-4,38,116,15,16,2,73,123,-6,-64,-47,77, 
  /* [9][0][][] */ 17,-32,23,-66,42,78,-41,51,15,-30,-35,-15,20,-49,106,-16,10,-116,39,46,-70,40,53,-39,-21,-78,-22,80,56,73,-44,-29,-48,28,-11,127,-22,-45,-53,-24,-31,-4,37,98,55,76,-62,19, 
  /* [10][0][][] */ -8,22,-18,-12,19,25,-69,-45,51,38,59,-7,-33,-13,48,-48,-61,127,-4,54,-3,-6,17,25,-40,41,7,92,34,9,-37,-13,77,5,-12,31,-6,-50,-43,19,-85,-5,24,-18,14,42,32,37, 
  /* [11][0][][] */ -26,43,-16,32,32,53,3,11,20,14,-127,-72,66,21,-4,-40,-6,22,-40,-46,-13,-5,105,8,48,10,-17,30,-7,21,-12,49,28,-7,-45,2,40,74,94,19,34,-29,65,1,-50,-18,79,1, 
  /* [12][0][][] */ -63,2,40,19,-65,-63,0,-2,-39,-35,-127,18,74,-102,16,31,50,105,80,-117,-37,47,-47,-86,3,-20,39,-36,4,20,-15,70,71,77,34,-30,-54,-26,27,-4,-36,14,57,-7,32,-19,-35,-32, 
  /* [13][0][][] */ -61,-118,-50,-105,13,27,57,17,-127,32,123,-64,52,45,122,4,117,23,0,-93,78,-86,124,2,-81,6,-24,17,-42,-102,-116,13,43,-27,-73,64,28,-60,88,-75,-9,53,74,38,63,-36,110,-65, 
  /* [14][0][][] */ 66,23,-57,5,-43,15,-89,-29,-31,58,57,47,-9,-66,11,-49,54,-112,19,12,83,-57,20,-9,-8,122,-84,0,-56,-24,-87,-2,127,38,84,-19,-77,15,-27,53,-17,-49,101,-24,-57,-44,-54,56, 
  /* [15][0][][] */ -62,16,46,23,97,0,0,32,24,79,-16,59,60,-17,-38,-21,15,42,-4,-38,26,-36,-52,-59,53,-68,-40,65,-36,11,19,8,-59,-2,127,-5,-90,19,57,-19,-51,-21,17,2,-37,-31,-11,11, 
};
const TfArray<4, int> tensor_dimension21 = { 4, { 16,1,1,48 } };
const TfArray<16, float> quant21_scale = { 16, { 0.0067778090015053749, 0.0061209267005324364, 0.0057384958490729332, 0.0080183735117316246, 0.0052158553153276443, 0.0056767305359244347, 0.0043047764338552952, 0.0059055672027170658, 0.0052996394224464893, 0.003917790949344635, 0.0078582633286714554, 0.0059741446748375893, 0.0061183171346783638, 0.0037909136153757572, 0.0064224088564515114, 0.005505808163434267, } };
const TfLiteAffineQuantization quant21 = { (TfLiteFloatArray*)&quant21_scale, (TfLiteIntArray*)&g0::quant8_zero, 0 };
const MODEL_SECTION(EI_MODEL_SECTION) ALIGN(16) int32_t tensor_data22[48] = { 14129, -980, 18043, -52, 16174, -2315, 35600, 108, 10839, 37209, 1801, 22657, 3419, 12563, 32778, 24199, 406, 270, 271, 46436, -395, 19867, -775, 17192, 16422, 30528, -3608, -1133, -2814, 13622, 19969, 341, -271, -1203, 2729, 16430, 8762, 36157, 2038, 15990, 27555, 1964, 486, 18164, 2345, 1318, 41003, 26105, };
const TfArray<1, int> tensor_dimension22 = { 1, { 48 } };
const TfArray<48, float> quant22_scale = { 48, { 8.7634682131465524e-05, 0.00014394544996321201, 6.9903289841022342e-05, 0.00013837953156325966, 0.00010394289711257443, 8.2536447735037655e-05, 5.8016208640765399e-05, 0.00026565510779619217, 9.1110108769498765e-05, 5.4926327720750123e-05, 6.5105457906611264e-05, 0.0001158730301540345, 5.9467976825544611e-05, 0.00012250198051333427, 5.2430230425670743e-05, 7.9694778833072633e-05, 9.5380288257729262e-05, 6.3338011386804283e-05, 0.00013945100363343954, 4.5473356294678524e-05, 7.6715426985174417e-05, 6.5001317125279456e-05, 0.00014893061597831547, 0.00010717161785578355, 6.852982915006578e-05, 8.6160107457544655e-05, 8.199456351576373e-05, 4.1973675251938403e-05, 0.00026490370510146022, 0.00010378287697676569, 7.0119269366841763e-05, 0.00029629803611896932, 0.00013139769725967199, 0.00016984634567052126, 8.2969359937123954e-05, 7.9566620115656406e-05, 9.3676237156614661e-05, 4.6435437980107963e-05, 9.1174500994384289e-05, 0.00011274337157374248, 5.6358992878813297e-05, 0.00020085104915779084, 0.00035525113344192505, 6.9800204073544592e-05, 0.00015139677270781249, 6.1006467149127275e-05, 4.6622717491118237e-05, 6.2288199842441827e-05, } };
const TfArray<48, int> quant22_zero = { 48, { 0,0,0,0,0,0,0,0,0,0,0,0,0,0,0,0,0,0,0,0,0,0,0,0,0,0,0,0,0,0,0,0,0,0,0,0,0,0,0,0,0,0,0,0,0,0,0,0 } };
const TfLiteAffineQuantization quant22 = { (TfLiteFloatArray*)&quant22_scale, (TfLiteIntArray*)&quant22_zero, 0 };
const MODEL_SECTION(EI_MODEL_SECTION) ALIGN(16) int8_t tensor_data23[1*3*3*48] = { 
  /* [0][0][][] */ -108,52,-127,80,-101,69,-42,110,-81,-68,72,-48,66,-72,-39,-55,68,80,89,-103,95,-122,83,-93,-92,-50,69,121,-95,-65,-72,83,69,-93,72,-103,-83,-112,89,-43,-2,-92,98,-112,101,57,-66,-76, -123,75,-59,100,-77,116,-39,127,-120,-91,106,-72,102,-109,-70,-82,95,114,127,-127,115,-121,96,-127,-104,-82,85,127,37,-86,-91,127,93,-127,102,-111,-94,-122,112,-69,-90,90,127,-127,-46,100,-88,-108, -49,36,7,19,-13,57,-13,64,-55,-27,48,-25,47,-54,-20,-17,32,53,65,-43,41,-58,35,-48,-84,-32,28,32,100,-37,-45,47,37,-79,32,-28,-17,-25,41,-36,-106,-41,35,-45,-79,59,-27,-74, 
  /* [0][1][][] */ -103,92,-72,107,-71,106,-119,79,-107,-102,77,-86,85,-110,-92,-95,104,85,-40,-96,107,-124,104,-83,-105,-85,93,103,-127,-89,-103,83,102,31,91,-116,-100,-124,104,-80,-106,-98,108,-120,127,66,-109,-98, -127,127,-95,127,-127,127,-127,108,-127,-127,127,-127,127,-127,-127,-127,127,127,-47,-111,127,-127,127,-122,-127,-127,127,123,18,-127,-127,127,127,44,127,-127,-127,-127,127,-127,-127,127,113,-120,-67,127,-127,-127, -76,65,-77,36,-50,30,-56,40,-54,-37,49,-57,54,-59,-44,-22,66,57,-32,-35,41,-63,44,-57,-117,-50,42,58,108,-65,-57,48,46,18,44,-48,-27,-16,54,-51,-60,-64,21,-47,-101,77,-30,-90, 
